{"learner":{"attributes":{"scikit_learn":"{\"_estimator_type\": \"classifier\"}"},"feature_names":[],"feature_types":[],"gradient_booster":{"model":{"gbtree_model_param":{"num_parallel_tree":"1","num_trees":"2900"},"iteration_indptr":[0,29,58,87,116,145,174,203,232,261,290,319,348,377,406,435,464,493,522,551,580,609,638,667,696,725,754,783,812,841,870,899,928,957,986,1015,1044,1073,1102,1131,1160,1189,1218,1247,1276,1305,1334,1363,1392,1421,1450,1479,1508,1537,1566,1595,1624,1653,1682,1711,1740,1769,1798,1827,1856,1885,1914,1943,1972,2001,2030,2059,2088,2117,2146,2175,2204,2233,2262,2291,2320,2349,2378,2407,2436,2465,2494,2523,2552,2581,2610,2639,2668,2697,2726,2755,2784,2813,2842,2871,2900],"tree_info":[0,1,2,3,4,5,6,7,8,9,10,11,12,13,14,15,16,17,18,19,20,21,22,23,24,25,26,27,28,0,1,2,3,4,5,6,7,8,9,10,11,12,13,14,15,16,17,18,19,20,21,22,23,24,25,26,27,28,0,1,2,3,4,5,6,7,8,9,10,11,12,13,14,15,16,17,18,19,20,21,22,23,24,25,26,27,28,0,1,2,3,4,5,6,7,8,9,10,11,12,13,14,15,16,17,18,19,20,21,22,23,24,25,26,27,28,0,1,2,3,4,5,6,7,8,9,10,11,12,13,14,15,16,17,18,19,20,21,22,23,24,25,26,27,28,0,1,2,3,4,5,6,7,8,9,10,11,12,13,14,15,16,17,18,19,20,21,22,23,24,25,26,27,28,0,1,2,3,4,5,6,7,8,9,10,11,12,13,14,15,16,17,18,19,20,21,22,23,24,25,26,27,28,0,1,2,3,4,5,6,7,8,9,10,11,12,13,14,15,16,17,18,19,20,21,22,23,24,25,26,27,28,0,1,2,3,4,5,6,7,8,9,10,11,12,13,14,15,16,17,18,19,20,21,22,23,24,25,26,27,28,0,1,2,3,4,5,6,7,8,9,10,11,12,13,14,15,16,17,18,19,20,21,22,23,24,25,26,27,28,0,1,2,3,4,5,6,7,8,9,10,11,12,13,14,15,16,17,18,19,20,21,22,23,24,25,26,27,28,0,1,2,3,4,5,6,7,8,9,10,11,12,13,14,15,16,17,18,19,20,21,22,23,24,25,26,27,28,0,1,2,3,4,5,6,7,8,9,10,11,12,13,14,15,16,17,18,19,20,21,22,23,24,25,26,27,28,0,1,2,3,4,5,6,7,8,9,10,11,12,13,14,15,16,17,18,19,20,21,22,23,24,25,26,27,28,0,1,2,3,4,5,6,7,8,9,10,11,12,13,14,15,16,17,18,19,20,21,22,23,24,25,26,27,28,0,1,2,3,4,5,6,7,8,9,10,11,12,13,14,15,16,17,18,19,20,21,22,23,24,25,26,27,28,0,1,2,3,4,5,6,7,8,9,10,11,12,13,14,15,16,17,18,19,20,21,22,23,24,25,26,27,28,0,1,2,3,4,5,6,7,8,9,10,11,12,13,14,15,16,17,18,19,20,21,22,23,24,25,26,27,28,0,1,2,3,4,5,6,7,8,9,10,11,12,13,14,15,16,17,18,19,20,21,22,23,24,25,26,27,28,0,1,2,3,4,5,6,7,8,9,10,11,12,13,14,15,16,17,18,19,20,21,22,23,24,25,26,27,28,0,1,2,3,4,5,6,7,8,9,10,11,12,13,14,15,16,17,18,19,20,21,22,23,24,25,26,27,28,0,1,2,3,4,5,6,7,8,9,10,11,12,13,14,15,16,17,18,19,20,21,22,23,24,25,26,27,28,0,1,2,3,4,5,6,7,8,9,10,11,12,13,14,15,16,17,18,19,20,21,22,23,24,25,26,27,28,0,1,2,3,4,5,6,7,8,9,10,11,12,13,14,15,16,17,18,19,20,21,22,23,24,25,26,27,28,0,1,2,3,4,5,6,7,8,9,10,11,12,13,14,15,16,17,18,19,20,21,22,23,24,25,26,27,28,0,1,2,3,4,5,6,7,8,9,10,11,12,13,14,15,16,17,18,19,20,21,22,23,24,25,26,27,28,0,1,2,3,4,5,6,7,8,9,10,11,12,13,14,15,16,17,18,19,20,21,22,23,24,25,26,27,28,0,1,2,3,4,5,6,7,8,9,10,11,12,13,14,15,16,17,18,19,20,21,22,23,24,25,26,27,28,0,1,2,3,4,5,6,7,8,9,10,11,12,13,14,15,16,17,18,19,20,21,22,23,24,25,26,27,28,0,1,2,3,4,5,6,7,8,9,10,11,12,13,14,15,16,17,18,19,20,21,22,23,24,25,26,27,28,0,1,2,3,4,5,6,7,8,9,10,11,12,13,14,15,16,17,18,19,20,21,22,23,24,25,26,27,28,0,1,2,3,4,5,6,7,8,9,10,11,12,13,14,15,16,17,18,19,20,21,22,23,24,25,26,27,28,0,1,2,3,4,5,6,7,8,9,10,11,12,13,14,15,16,17,18,19,20,21,22,23,24,25,26,27,28,0,1,2,3,4,5,6,7,8,9,10,11,12,13,14,15,16,17,18,19,20,21,22,23,24,25,26,27,28,0,1,2,3,4,5,6,7,8,9,10,11,12,13,14,15,16,17,18,19,20,21,22,23,24,25,26,27,28,0,1,2,3,4,5,6,7,8,9,10,11,12,13,14,15,16,17,18,19,20,21,22,23,24,25,26,27,28,0,1,2,3,4,5,6,7,8,9,10,11,12,13,14,15,16,17,18,19,20,21,22,23,24,25,26,27,28,0,1,2,3,4,5,6,7,8,9,10,11,12,13,14,15,16,17,18,19,20,21,22,23,24,25,26,27,28,0,1,2,3,4,5,6,7,8,9,10,11,12,13,14,15,16,17,18,19,20,21,22,23,24,25,26,27,28,0,1,2,3,4,5,6,7,8,9,10,11,12,13,14,15,16,17,18,19,20,21,22,23,24,25,26,27,28,0,1,2,3,4,5,6,7,8,9,10,11,12,13,14,15,16,17,18,19,20,21,22,23,24,25,26,27,28,0,1,2,3,4,5,6,7,8,9,10,11,12,13,14,15,16,17,18,19,20,21,22,23,24,25,26,27,28,0,1,2,3,4,5,6,7,8,9,10,11,12,13,14,15,16,17,18,19,20,21,22,23,24,25,26,27,28,0,1,2,3,4,5,6,7,8,9,10,11,12,13,14,15,16,17,18,19,20,21,22,23,24,25,26,27,28,0,1,2,3,4,5,6,7,8,9,10,11,12,13,14,15,16,17,18,19,20,21,22,23,24,25,26,27,28,0,1,2,3,4,5,6,7,8,9,10,11,12,13,14,15,16,17,18,19,20,21,22,23,24,25,26,27,28,0,1,2,3,4,5,6,7,8,9,10,11,12,13,14,15,16,17,18,19,20,21,22,23,24,25,26,27,28,0,1,2,3,4,5,6,7,8,9,10,11,12,13,14,15,16,17,18,19,20,21,22,23,24,25,26,27,28,0,1,2,3,4,5,6,7,8,9,10,11,12,13,14,15,16,17,18,19,20,21,22,23,24,25,26,27,28,0,1,2,3,4,5,6,7,8,9,10,11,12,13,14,15,16,17,18,19,20,21,22,23,24,25,26,27,28,0,1,2,3,4,5,6,7,8,9,10,11,12,13,14,15,16,17,18,19,20,21,22,23,24,25,26,27,28,0,1,2,3,4,5,6,7,8,9,10,11,12,13,14,15,16,17,18,19,20,21,22,23,24,25,26,27,28,0,1,2,3,4,5,6,7,8,9,10,11,12,13,14,15,16,17,18,19,20,21,22,23,24,25,26,27,28,0,1,2,3,4,5,6,7,8,9,10,11,12,13,14,15,16,17,18,19,20,21,22,23,24,25,26,27,28,0,1,2,3,4,5,6,7,8,9,10,11,12,13,14,15,16,17,18,19,20,21,22,23,24,25,26,27,28,0,1,2,3,4,5,6,7,8,9,10,11,12,13,14,15,16,17,18,19,20,21,22,23,24,25,26,27,28,0,1,2,3,4,5,6,7,8,9,10,11,12,13,14,15,16,17,18,19,20,21,22,23,24,25,26,27,28,0,1,2,3,4,5,6,7,8,9,10,11,12,13,14,15,16,17,18,19,20,21,22,23,24,25,26,27,28,0,1,2,3,4,5,6,7,8,9,10,11,12,13,14,15,16,17,18,19,20,21,22,23,24,25,26,27,28,0,1,2,3,4,5,6,7,8,9,10,11,12,13,14,15,16,17,18,19,20,21,22,23,24,25,26,27,28,0,1,2,3,4,5,6,7,8,9,10,11,12,13,14,15,16,17,18,19,20,21,22,23,24,25,26,27,28,0,1,2,3,4,5,6,7,8,9,10,11,12,13,14,15,16,17,18,19,20,21,22,23,24,25,26,27,28,0,1,2,3,4,5,6,7,8,9,10,11,12,13,14,15,16,17,18,19,20,21,22,23,24,25,26,27,28,0,1,2,3,4,5,6,7,8,9,10,11,12,13,14,15,16,17,18,19,20,21,22,23,24,25,26,27,28,0,1,2,3,4,5,6,7,8,9,10,11,12,13,14,15,16,17,18,19,20,21,22,23,24,25,26,27,28,0,1,2,3,4,5,6,7,8,9,10,11,12,13,14,15,16,17,18,19,20,21,22,23,24,25,26,27,28,0,1,2,3,4,5,6,7,8,9,10,11,12,13,14,15,16,17,18,19,20,21,22,23,24,25,26,27,28,0,1,2,3,4,5,6,7,8,9,10,11,12,13,14,15,16,17,18,19,20,21,22,23,24,25,26,27,28,0,1,2,3,4,5,6,7,8,9,10,11,12,13,14,15,16,17,18,19,20,21,22,23,24,25,26,27,28,0,1,2,3,4,5,6,7,8,9,10,11,12,13,14,15,16,17,18,19,20,21,22,23,24,25,26,27,28,0,1,2,3,4,5,6,7,8,9,10,11,12,13,14,15,16,17,18,19,20,21,22,23,24,25,26,27,28,0,1,2,3,4,5,6,7,8,9,10,11,12,13,14,15,16,17,18,19,20,21,22,23,24,25,26,27,28,0,1,2,3,4,5,6,7,8,9,10,11,12,13,14,15,16,17,18,19,20,21,22,23,24,25,26,27,28,0,1,2,3,4,5,6,7,8,9,10,11,12,13,14,15,16,17,18,19,20,21,22,23,24,25,26,27,28,0,1,2,3,4,5,6,7,8,9,10,11,12,13,14,15,16,17,18,19,20,21,22,23,24,25,26,27,28,0,1,2,3,4,5,6,7,8,9,10,11,12,13,14,15,16,17,18,19,20,21,22,23,24,25,26,27,28,0,1,2,3,4,5,6,7,8,9,10,11,12,13,14,15,16,17,18,19,20,21,22,23,24,25,26,27,28,0,1,2,3,4,5,6,7,8,9,10,11,12,13,14,15,16,17,18,19,20,21,22,23,24,25,26,27,28,0,1,2,3,4,5,6,7,8,9,10,11,12,13,14,15,16,17,18,19,20,21,22,23,24,25,26,27,28,0,1,2,3,4,5,6,7,8,9,10,11,12,13,14,15,16,17,18,19,20,21,22,23,24,25,26,27,28,0,1,2,3,4,5,6,7,8,9,10,11,12,13,14,15,16,17,18,19,20,21,22,23,24,25,26,27,28,0,1,2,3,4,5,6,7,8,9,10,11,12,13,14,15,16,17,18,19,20,21,22,23,24,25,26,27,28,0,1,2,3,4,5,6,7,8,9,10,11,12,13,14,15,16,17,18,19,20,21,22,23,24,25,26,27,28,0,1,2,3,4,5,6,7,8,9,10,11,12,13,14,15,16,17,18,19,20,21,22,23,24,25,26,27,28,0,1,2,3,4,5,6,7,8,9,10,11,12,13,14,15,16,17,18,19,20,21,22,23,24,25,26,27,28,0,1,2,3,4,5,6,7,8,9,10,11,12,13,14,15,16,17,18,19,20,21,22,23,24,25,26,27,28,0,1,2,3,4,5,6,7,8,9,10,11,12,13,14,15,16,17,18,19,20,21,22,23,24,25,26,27,28,0,1,2,3,4,5,6,7,8,9,10,11,12,13,14,15,16,17,18,19,20,21,22,23,24,25,26,27,28,0,1,2,3,4,5,6,7,8,9,10,11,12,13,14,15,16,17,18,19,20,21,22,23,24,25,26,27,28,0,1,2,3,4,5,6,7,8,9,10,11,12,13,14,15,16,17,18,19,20,21,22,23,24,25,26,27,28,0,1,2,3,4,5,6,7,8,9,10,11,12,13,14,15,16,17,18,19,20,21,22,23,24,25,26,27,28,0,1,2,3,4,5,6,7,8,9,10,11,12,13,14,15,16,17,18,19,20,21,22,23,24,25,26,27,28,0,1,2,3,4,5,6,7,8,9,10,11,12,13,14,15,16,17,18,19,20,21,22,23,24,25,26,27,28,0,1,2,3,4,5,6,7,8,9,10,11,12,13,14,15,16,17,18,19,20,21,22,23,24,25,26,27,28,0,1,2,3,4,5,6,7,8,9,10,11,12,13,14,15,16,17,18,19,20,21,22,23,24,25,26,27,28,0,1,2,3,4,5,6,7,8,9,10,11,12,13,14,15,16,17,18,19,20,21,22,23,24,25,26,27,28,0,1,2,3,4,5,6,7,8,9,10,11,12,13,14,15,16,17,18,19,20,21,22,23,24,25,26,27,28,0,1,2,3,4,5,6,7,8,9,10,11,12,13,14,15,16,17,18,19,20,21,22,23,24,25,26,27,28,0,1,2,3,4,5,6,7,8,9,10,11,12,13,14,15,16,17,18,19,20,21,22,23,24,25,26,27,28,0,1,2,3,4,5,6,7,8,9,10,11,12,13,14,15,16,17,18,19,20,21,22,23,24,25,26,27,28],"trees":[{"base_weights":[-3.275392E-1,-4.3245533E-1,7.080937E0,-2.3922737E-1,6.8719697E0],"categories":[],"categories_nodes":[],"categories_segments":[],"categories_sizes":[],"default_left":[0,0,0,0,0],"id":0,"left_children":[1,3,-1,-1,-1],"loss_changes":[9.068138E3,3.8665771E3,0E0,0E0,0E0],"parents":[2147483647,0,0,1,1],"right_children":[2,4,-1,-1,-1],"split_conditions":[1E0,1E0,7.080937E0,-2.3922737E-1,6.8719697E0],"split_indices":[125,73,0,0,0],"split_type":[0,0,0,0,0],"sum_hessian":[5.9601714E3,5.9182876E3,4.1883472E1,5.9001094E3,1.817836E1],"tree_param":{"num_deleted":"0","num_feature":"145","num_nodes":"5","size_leaf_vector":"1"}},{"base_weights":[-4.9998853E-1,-5.094217E-1,1.0761989E-1,-2.56978E-1,-1.2006625E-1,-1.2235557E-1,4.982521E0],"categories":[],"categories_nodes":[],"categories_segments":[],"categories_sizes":[],"default_left":[0,0,0,0,0,0,0],"id":1,"left_children":[1,3,5,-1,-1,-1,-1],"loss_changes":[3.4222412E1,7.0443115E0,3.2181702E2,0E0,0E0,0E0,0E0],"parents":[2147483647,0,0,1,1,2,2],"right_children":[2,4,6,-1,-1,-1,-1],"split_conditions":[1E0,1E0,1E0,-2.56978E-1,-1.2006625E-1,-1.2235557E-1,4.982521E0],"split_indices":[82,111,130,0,0,0,0],"split_type":[0,0,0,0,0,0,0],"sum_hessian":[5.9601714E3,5.869213E3,9.095838E1,5.7711294E3,9.808324E1,8.8761E1,2.197384E0],"tree_param":{"num_deleted":"0","num_feature":"145","num_nodes":"7","size_leaf_vector":"1"}},{"base_weights":[-5.038468E-1,-5.11728E-1,5.4943852E0,-2.5737423E-1,3.9524066E0],"categories":[],"categories_nodes":[],"categories_segments":[],"categories_sizes":[],"default_left":[0,0,0,0,0],"id":2,"left_children":[1,3,-1,-1,-1],"loss_changes":[5.455558E2,1.5553528E2,0E0,0E0,0E0],"parents":[2147483647,0,0,1,1],"right_children":[2,4,-1,-1,-1],"split_conditions":[1E0,1E0,5.4943852E0,-2.5737423E-1,3.9524066E0],"split_indices":[16,1,0,0,0],"split_type":[0,0,0,0,0],"sum_hessian":[5.9601714E3,5.9570415E3,3.1296077E0,5.9558433E3,1.1985731E0],"tree_param":{"num_deleted":"0","num_feature":"145","num_nodes":"5","size_leaf_vector":"1"}},{"base_weights":[-3.8608474E-1,-2.577799E-1,9.380937E0,5.6181498E0,-2.3948754E-1],"categories":[],"categories_nodes":[],"categories_segments":[],"categories_sizes":[],"default_left":[0,0,0,0,0],"id":3,"left_children":[1,-1,3,-1,-1],"loss_changes":[7.5432485E3,0E0,1.4330537E3,0E0,0E0],"parents":[2147483647,0,0,2,2],"right_children":[2,-1,4,-1,-1],"split_conditions":[1E0,-2.577799E-1,1E0,5.6181498E0,-2.3948754E-1],"split_indices":[39,0,68,0,0],"split_type":[0,0,0,0,0],"sum_hessian":[5.9601714E3,5.8831294E3,7.704162E1,6.4722946E1,1.2318668E1],"tree_param":{"num_deleted":"0","num_feature":"145","num_nodes":"5","size_leaf_vector":"1"}},{"base_weights":[-1.6079345E-1,-4.2860243E-1,7.1828327E0,-2.470461E-1,6.9771314E0],"categories":[],"categories_nodes":[],"categories_segments":[],"categories_sizes":[],"default_left":[0,0,0,0,0],"id":4,"left_children":[1,3,-1,-1,-1],"loss_changes":[2.3196996E4,5.521175E3,0E0,0E0,0E0],"parents":[2147483647,0,0,1,1],"right_children":[2,4,-1,-1,-1],"split_conditions":[1E0,1E0,7.1828327E0,-2.470461E-1,6.9771314E0],"split_indices":[20,61,0,0,0],"split_type":[0,0,0,0,0],"sum_hessian":[5.9601714E3,5.853232E3,1.0693936E2,5.827662E3,2.5569561E1],"tree_param":{"num_deleted":"0","num_feature":"145","num_nodes":"5","size_leaf_vector":"1"}},{"base_weights":[-4.8489082E-1,-5.007151E-1,1.8688831E0,-2.5483996E-1,-1.5836915E-2,-4.9294326E-2,6.11605E0],"categories":[],"categories_nodes":[],"categories_segments":[],"categories_sizes":[],"default_left":[0,0,0,0,0,0,0],"id":5,"left_children":[1,3,5,-1,-1,-1,-1],"loss_changes":[2.2296985E2,2.4885864E1,8.171915E2,0E0,0E0,0E0,0E0],"parents":[2147483647,0,0,1,1,2,2],"right_children":[2,4,6,-1,-1,-1,-1],"split_conditions":[1E0,1E0,1E0,-2.5483996E-1,-1.5836915E-2,-4.9294326E-2,6.11605E0],"split_indices":[136,94,60,0,0,0,0],"split_type":[0,0,0,0,0,0,0],"sum_hessian":[5.9601714E3,5.921151E3,3.9020214E1,5.8100166E3,1.1113436E2,3.3626637E1,5.393579E0],"tree_param":{"num_deleted":"0","num_feature":"145","num_nodes":"7","size_leaf_vector":"1"}},{"base_weights":[1.8797451E0,3.5661945E-1,7.238724E0,-1.1631322E-1,7.216081E0],"categories":[],"categories_nodes":[],"categories_segments":[],"categories_sizes":[],"default_left":[0,0,0,0,0],"id":6,"left_children":[1,3,-1,-1,-1],"loss_changes":[1.1437711E5,4.4120586E4,0E0,0E0,0E0],"parents":[2147483647,0,0,1,1],"right_children":[2,4,-1,-1,-1],"split_conditions":[1E0,1E0,7.238724E0,-1.1631322E-1,7.216081E0],"split_indices":[96,15,0,0,0],"split_type":[0,0,0,0,0],"sum_hessian":[5.9601714E3,5.318202E3,6.4196906E2,5.1054556E3,2.1274673E2],"tree_param":{"num_deleted":"0","num_feature":"145","num_nodes":"5","size_leaf_vector":"1"}},{"base_weights":[-2.9107919E-2,-3.5160825E-1,7.1944213E0,-2.2806002E-1,7.0763535E0],"categories":[],"categories_nodes":[],"categories_segments":[],"categories_sizes":[],"default_left":[0,0,0,0,0],"id":7,"left_children":[1,3,-1,-1,-1],"loss_changes":[2.772328E4,8.8466045E3,0E0,0E0,0E0],"parents":[2147483647,0,0,1,1],"right_children":[2,4,-1,-1,-1],"split_conditions":[1E0,1E0,7.1944213E0,-2.2806002E-1,7.0763535E0],"split_indices":[48,88,0,0,0],"split_type":[0,0,0,0,0],"sum_hessian":[5.9601714E3,5.830725E3,1.2944589E2,5.7899736E3,4.0751488E1],"tree_param":{"num_deleted":"0","num_feature":"145","num_nodes":"5","size_leaf_vector":"1"}},{"base_weights":[-2.7704576E-1,-4.064221E-1,7.112529E0,-2.340263E-1,1.6389164E0],"categories":[],"categories_nodes":[],"categories_segments":[],"categories_sizes":[],"default_left":[0,0,0,0,0],"id":8,"left_children":[1,3,-1,-1,-1],"loss_changes":[1.1190305E4,1.3433442E3,0E0,0E0,0E0],"parents":[2147483647,0,0,1,1],"right_children":[2,4,-1,-1,-1],"split_conditions":[1E0,1E0,7.112529E0,-2.340263E-1,1.6389164E0],"split_indices":[110,95,0,0,0],"split_type":[0,0,0,0,0],"sum_hessian":[5.9601714E3,5.9084326E3,5.1738407E1,5.812081E3,9.635196E1],"tree_param":{"num_deleted":"0","num_feature":"145","num_nodes":"5","size_leaf_vector":"1"}},{"base_weights":[-3.1059623E-1,-3.99536E-1,2.3502934E-1,-2.276999E-1,-7.645883E-3,9.146026E-1,-2.5847346E-1],"categories":[],"categories_nodes":[],"categories_segments":[],"categories_sizes":[],"default_left":[0,0,0,0,0,0,0],"id":9,"left_children":[1,3,5,-1,-1,-1,-1],"loss_changes":[2.893766E2,1.10025085E2,1.0032945E3,0E0,0E0,0E0,0E0],"parents":[2147483647,0,0,1,1,2,2],"right_children":[2,4,6,-1,-1,-1,-1],"split_conditions":[1E0,1E0,1E0,-2.276999E-1,-7.645883E-3,9.146026E-1,-2.5847346E-1],"split_indices":[60,22,26,0,0,0,0],"split_type":[0,0,0,0,0,0,0],"sum_hessian":[5.9601714E3,5.125032E3,8.351391E2,4.47434E3,6.50692E2,2.672152E2,5.679239E2],"tree_param":{"num_deleted":"0","num_feature":"145","num_nodes":"7","size_leaf_vector":"1"}},{"base_weights":[-3.6561897E-1,-4.499508E-1,7.0406237E0,-2.4356264E-1,4.7660623E0],"categories":[],"categories_nodes":[],"categories_segments":[],"categories_sizes":[],"default_left":[0,0,0,0,0],"id":10,"left_children":[1,3,-1,-1,-1],"loss_changes":[7.2690137E3,2.204227E3,0E0,0E0,0E0],"parents":[2147483647,0,0,1,1],"right_children":[2,4,-1,-1,-1],"split_conditions":[1E0,1E0,7.0406237E0,-2.4356264E-1,4.7660623E0],"split_indices":[19,136,0,0,0],"split_type":[0,0,0,0,0],"sum_hessian":[5.9601714E3,5.9265444E3,3.3626637E1,5.905503E3,2.1041616E1],"tree_param":{"num_deleted":"0","num_feature":"145","num_nodes":"5","size_leaf_vector":"1"}},{"base_weights":[-5.134087E-1],"categories":[],"categories_nodes":[],"categories_segments":[],"categories_sizes":[],"default_left":[0],"id":11,"left_children":[-1],"loss_changes":[0E0],"parents":[2147483647],"right_children":[-1],"split_conditions":[-2.5670436E-1],"split_indices":[0],"split_type":[0],"sum_hessian":[5.9601714E3],"tree_param":{"num_deleted":"0","num_feature":"145","num_nodes":"1","size_leaf_vector":"1"}},{"base_weights":[-4.6677357E-1,-4.9675906E-1,6.688817E0,-2.5476333E-1,6.053757E0],"categories":[],"categories_nodes":[],"categories_segments":[],"categories_sizes":[],"default_left":[0,0,0,0,0],"id":12,"left_children":[1,3,-1,-1,-1],"loss_changes":[2.481313E3,9.635625E2,0E0,0E0,0E0],"parents":[2147483647,0,0,1,1],"right_children":[2,4,-1,-1,-1],"split_conditions":[1E0,1E0,6.688817E0,-2.5476333E-1,6.053757E0],"split_indices":[75,105,0,0,0],"split_type":[0,0,0,0,0],"sum_hessian":[5.9601714E3,5.948252E3,1.1919144E1,5.9431914E3,5.0606422E0],"tree_param":{"num_deleted":"0","num_feature":"145","num_nodes":"5","size_leaf_vector":"1"}},{"base_weights":[-1.8142697E-1,-3.7281114E-1,7.1567025E0,-2.267624E-1,7.028708E0],"categories":[],"categories_nodes":[],"categories_segments":[],"categories_sizes":[],"default_left":[0,0,0,0,0],"id":13,"left_children":[1,3,-1,-1,-1],"loss_changes":[1.654211E4,6.860108E3,0E0,0E0,0E0],"parents":[2147483647,0,0,1,1],"right_children":[2,4,-1,-1,-1],"split_conditions":[1E0,1E0,7.1567025E0,-2.267624E-1,7.028708E0],"split_indices":[118,103,0,0,0],"split_type":[0,0,0,0,0],"sum_hessian":[5.9601714E3,5.8834624E3,7.670868E1,5.8517E3,3.1762188E1],"tree_param":{"num_deleted":"0","num_feature":"145","num_nodes":"5","size_leaf_vector":"1"}},{"base_weights":[-1.1919089E-1,-3.3242223E-1,7.166376E0,-2.1682581E-1,3.752335E0],"categories":[],"categories_nodes":[],"categories_segments":[],"categories_sizes":[],"default_left":[0,0,0,0,0],"id":14,"left_children":[1,3,-1,-1,-1],"loss_changes":[1.8374754E4,4.664526E3,0E0,0E0,0E0],"parents":[2147483647,0,0,1,1],"right_children":[2,4,-1,-1,-1],"split_conditions":[1E0,1E0,7.166376E0,-2.1682581E-1,3.752335E0],"split_indices":[143,85,0,0,0],"split_type":[0,0,0,0,0],"sum_hessian":[5.9601714E3,5.874473E3,8.5697975E1,5.8004946E3,7.39786E1],"tree_param":{"num_deleted":"0","num_feature":"145","num_nodes":"5","size_leaf_vector":"1"}},{"base_weights":[-2.2957188E-1,-3.7544337E-1,3.8132596E0,-2.280038E-1,1.6564725E-1,7.6266986E-1,7.057299E0],"categories":[],"categories_nodes":[],"categories_segments":[],"categories_sizes":[],"default_left":[0,0,0,0,0,0,0],"id":15,"left_children":[1,3,5,-1,-1,-1,-1],"loss_changes":[3.516936E3,3.277987E2,4.873377E3,0E0,0E0,0E0,0E0],"parents":[2147483647,0,0,1,1,2,2],"right_children":[2,4,6,-1,-1,-1,-1],"split_conditions":[1E0,1E0,1E0,-2.280038E-1,1.6564725E-1,7.6266986E-1,7.057299E0],"split_indices":[142,137,137,0,0,0,0],"split_type":[0,0,0,0,0,0,0],"sum_hessian":[5.9601714E3,5.753484E3,2.0668727E2,5.1650513E3,5.884328E2,1.7006421E2,3.6623066E1],"tree_param":{"num_deleted":"0","num_feature":"145","num_nodes":"7","size_leaf_vector":"1"}},{"base_weights":[-5.0166607E-1,-5.105526E-1,5.6492515E0,-2.5737402E-1,4.5292277E0],"categories":[],"categories_nodes":[],"categories_segments":[],"categories_sizes":[],"default_left":[0,0,0,0,0],"id":16,"left_children":[1,3,-1,-1,-1],"loss_changes":[6.308733E2,2.4383862E2,0E0,0E0,0E0],"parents":[2147483647,0,0,1,1],"right_children":[2,4,-1,-1,-1],"split_conditions":[1E0,1E0,5.6492515E0,-2.5737402E-1,4.5292277E0],"split_indices":[101,76,0,0,0],"split_type":[0,0,0,0,0],"sum_hessian":[5.9601714E3,5.956642E3,3.529132E0,5.9549775E3,1.6646849E0],"tree_param":{"num_deleted":"0","num_feature":"145","num_nodes":"5","size_leaf_vector":"1"}},{"base_weights":[2.1511683E0,1.5400434E-1,7.2412744E0,-1.7874934E-1,7.209191E0],"categories":[],"categories_nodes":[],"categories_segments":[],"categories_sizes":[],"default_left":[0,0,0,0,0],"id":17,"left_children":[1,3,-1,-1,-1],"loss_changes":[1.4680823E5,3.7444465E4,0E0,0E0,0E0],"parents":[2147483647,0,0,1,1],"right_children":[2,4,-1,-1,-1],"split_conditions":[1E0,1E0,7.2412744E0,-1.7874934E-1,7.209191E0],"split_indices":[42,14,0,0,0],"split_type":[0,0,0,0,0],"sum_hessian":[5.9601714E3,5.1302925E3,8.298787E2,4.953636E3,1.7665636E2],"tree_param":{"num_deleted":"0","num_feature":"145","num_nodes":"5","size_leaf_vector":"1"}},{"base_weights":[-5.0871164E-1,-2.5686795E-1,1.8202605E0,3.466422E-1,3.7397811E0],"categories":[],"categories_nodes":[],"categories_segments":[],"categories_sizes":[],"default_left":[0,0,0,0,0],"id":18,"left_children":[1,-1,3,-1,-1],"loss_changes":[7.068848E1,0E0,7.80609E1,0E0,0E0],"parents":[2147483647,0,0,2,2],"right_children":[2,-1,4,-1,-1],"split_conditions":[1E0,-2.5686795E-1,1E0,3.466422E-1,3.7397811E0],"split_indices":[100,0,41,0,0],"split_type":[0,0,0,0,0],"sum_hessian":[5.9601714E3,5.948119E3,1.2052319E1,1.098692E1,1.0653983E0],"tree_param":{"num_deleted":"0","num_feature":"145","num_nodes":"5","size_leaf_vector":"1"}},{"base_weights":[2.6574447E0,5.122962E-1,1.394785E1,-3.7301353E-3,6.367969E0,7.2355742E0,-2.5136355E-1],"categories":[],"categories_nodes":[],"categories_segments":[],"categories_sizes":[],"default_left":[0,0,0,0,0,0,0],"id":19,"left_children":[1,3,5,-1,-1,-1,-1],"loss_changes":[1.4437E5,3.183298E4,7.2042656E3,0E0,0E0,0E0,0E0],"parents":[2147483647,0,0,1,1,2,2],"right_children":[2,4,6,-1,-1,-1,-1],"split_conditions":[1E0,1E0,1E0,-3.7301353E-3,6.367969E0,7.2355742E0,-2.5136355E-1],"split_indices":[8,89,39,0,0,0,0],"split_type":[0,0,0,0,0,0,0],"sum_hessian":[5.9601714E3,5.0094365E3,9.5073486E2,4.8060786E3,2.0335791E2,9.1750775E2,3.322711E1],"tree_param":{"num_deleted":"0","num_feature":"145","num_nodes":"7","size_leaf_vector":"1"}},{"base_weights":[7.06318E-1,-5.8831993E-2,7.226932E0,-1.7124078E-1,5.8962846E0],"categories":[],"categories_nodes":[],"categories_segments":[],"categories_sizes":[],"default_left":[0,0,0,0,0],"id":20,"left_children":[1,3,-1,-1,-1],"loss_changes":[6.2706027E4,1.8990197E4,0E0,0E0,0E0],"parents":[2147483647,0,0,1,1],"right_children":[2,4,-1,-1,-1],"split_conditions":[1E0,1E0,7.226932E0,-1.7124078E-1,5.8962846E0],"split_indices":[10,71,0,0,0],"split_type":[0,0,0,0,0],"sum_hessian":[5.9601714E3,5.6468774E3,3.132937E2,5.5158335E3,1.3104399E2],"tree_param":{"num_deleted":"0","num_feature":"145","num_nodes":"5","size_leaf_vector":"1"}},{"base_weights":[-4.2080945E-1,-4.7416675E-1,6.924031E0,-2.490206E-1,6.556579E0],"categories":[],"categories_nodes":[],"categories_segments":[],"categories_sizes":[],"default_left":[0,0,0,0,0],"id":21,"left_children":[1,3,-1,-1,-1],"loss_changes":[4.545094E3,1.9333853E3,0E0,0E0,0E0],"parents":[2147483647,0,0,1,1],"right_children":[2,4,-1,-1,-1],"split_conditions":[1E0,1E0,6.924031E0,-2.490206E-1,6.556579E0],"split_indices":[43,13,0,0,0],"split_type":[0,0,0,0,0],"sum_hessian":[5.9601714E3,5.9389297E3,2.1241379E1,5.9294746E3,9.45541E0],"tree_param":{"num_deleted":"0","num_feature":"145","num_nodes":"5","size_leaf_vector":"1"}},{"base_weights":[-4.05544E-1,-4.679075E-1,6.9693956E0,-2.504115E-1,2.4436178E0],"categories":[],"categories_nodes":[],"categories_segments":[],"categories_sizes":[],"default_left":[0,0,0,0,0],"id":22,"left_children":[1,3,-1,-1,-1],"loss_changes":[5.3391636E3,1.0488304E3,0E0,0E0,0E0],"parents":[2147483647,0,0,1,1],"right_children":[2,4,-1,-1,-1],"split_conditions":[1E0,1E0,6.9693956E0,-2.504115E-1,2.4436178E0],"split_indices":[92,47,0,0,0],"split_type":[0,0,0,0,0],"sum_hessian":[5.9601714E3,5.935334E3,2.48371E1,5.899976E3,3.5357906E1],"tree_param":{"num_deleted":"0","num_feature":"145","num_nodes":"5","size_leaf_vector":"1"}},{"base_weights":[-4.6861887E-1,-4.97433E-1,6.6678123E0,-2.5425953E-1,5.906105E0],"categories":[],"categories_nodes":[],"categories_segments":[],"categories_sizes":[],"default_left":[0,0,0,0,0],"id":23,"left_children":[1,3,-1,-1,-1],"loss_changes":[2.3777344E3,8.17938E2,0E0,0E0,0E0],"parents":[2147483647,0,0,1,1],"right_children":[2,4,-1,-1,-1],"split_conditions":[1E0,1E0,6.6678123E0,-2.5425953E-1,5.906105E0],"split_indices":[77,4,0,0,0],"split_type":[0,0,0,0,0],"sum_hessian":[5.9601714E3,5.9487183E3,1.14530325E1,5.944323E3,4.394768E0],"tree_param":{"num_deleted":"0","num_feature":"145","num_nodes":"5","size_leaf_vector":"1"}},{"base_weights":[-2.2806211E-1,-3.8482553E-1,5.8197343E-1,-2.3138832E-1,2.8791186E-1,5.023551E-1,-2.5796774E-1],"categories":[],"categories_nodes":[],"categories_segments":[],"categories_sizes":[],"default_left":[0,0,0,0,0,0,0],"id":24,"left_children":[1,3,5,-1,-1,-1,-1],"loss_changes":[7.571971E2,3.7432446E2,4.4932098E2,0E0,0E0,0E0,0E0],"parents":[2147483647,0,0,1,1,2,2],"right_children":[2,4,6,-1,-1,-1,-1],"split_conditions":[1E0,1E0,1E0,-2.3138832E-1,2.8791186E-1,5.023551E-1,-2.5796774E-1],"split_indices":[7,123,30,0,0,0,0],"split_type":[0,0,0,0,0,0,0],"sum_hessian":[5.9601714E3,4.994188E3,9.6598334E2,4.6198335E3,3.7435434E2,6.97503E2,2.6848038E2],"tree_param":{"num_deleted":"0","num_feature":"145","num_nodes":"7","size_leaf_vector":"1"}},{"base_weights":[-4.058795E-1,-4.6220252E-1,6.940699E0,-2.4530406E-1,6.658321E0],"categories":[],"categories_nodes":[],"categories_segments":[],"categories_sizes":[],"default_left":[0,0,0,0,0],"id":25,"left_children":[1,3,-1,-1,-1],"loss_changes":[4.8033857E3,2.3309326E3,0E0,0E0,0E0],"parents":[2147483647,0,0,1,1],"right_children":[2,4,-1,-1,-1],"split_conditions":[1E0,1E0,6.940699E0,-2.4530406E-1,6.658321E0],"split_indices":[116,107,0,0,0],"split_type":[0,0,0,0,0],"sum_hessian":[5.9601714E3,5.9377314E3,2.2439953E1,5.926478E3,1.125327E1],"tree_param":{"num_deleted":"0","num_feature":"145","num_nodes":"5","size_leaf_vector":"1"}},{"base_weights":[-1.1516483E-1,-3.206882E-1,1.2371634E1,-2.2492997E-1,2.254443E0,4.7890096E0,7.1200747E0],"categories":[],"categories_nodes":[],"categories_segments":[],"categories_sizes":[],"default_left":[0,0,0,0,0,0,0],"id":26,"left_children":[1,3,5,-1,-1,-1,-1],"loss_changes":[1.5302292E4,3.6612622E3,3.6760547E2,0E0,0E0,0E0,0E0],"parents":[2147483647,0,0,1,1,2,2],"right_children":[2,4,6,-1,-1,-1,-1],"split_conditions":[1E0,1E0,1E0,-2.2492997E-1,2.254443E0,4.7890096E0,7.1200747E0],"split_indices":[106,142,142,0,0,0,0],"split_type":[0,0,0,0,0,0,0],"sum_hessian":[5.9601714E3,5.864618E3,9.555291E1,5.7127324E3,1.5188585E2,4.0751488E1,5.4801426E1],"tree_param":{"num_deleted":"0","num_feature":"145","num_nodes":"7","size_leaf_vector":"1"}},{"base_weights":[9.6935356E-1,1.1232831E-1,1.2181298E1,-1.4954606E-1,3.2931366E0,5.1826854E0,7.2112117E0],"categories":[],"categories_nodes":[],"categories_segments":[],"categories_sizes":[],"default_left":[0,0,0,0,0,0,0],"id":27,"left_children":[1,3,5,-1,-1,-1,-1],"loss_changes":[5.7279055E4,1.4754834E4,1.5732109E3,0E0,0E0,0E0,0E0],"parents":[2147483647,0,0,1,1,2,2],"right_children":[2,4,6,-1,-1,-1,-1],"split_conditions":[1E0,1E0,1E0,-1.4954606E-1,3.2931366E0,5.1826854E0,7.2112117E0],"split_indices":[33,86,114,0,0,0,0],"split_type":[0,0,0,0,0,0,0],"sum_hessian":[5.9601714E3,5.537874E3,4.2229727E2,5.2078667E3,3.3000714E2,2.3638525E2,1.85912E2],"tree_param":{"num_deleted":"0","num_feature":"145","num_nodes":"7","size_leaf_vector":"1"}},{"base_weights":[-4.536889E-1,-4.862151E-1,1.474258E0,-2.5071836E-1,7.037838E-1,2.4808215E-1,6.3351836E0],"categories":[],"categories_nodes":[],"categories_segments":[],"categories_sizes":[],"default_left":[0,0,0,0,0,0,0],"id":28,"left_children":[1,3,5,-1,-1,-1,-1],"loss_changes":[3.745349E2,1.6971533E2,1.0794875E3,0E0,0E0,0E0,0E0],"parents":[2147483647,0,0,1,1,2,2],"right_children":[2,4,6,-1,-1,-1,-1],"split_conditions":[1E0,1E0,1E0,-2.5071836E-1,7.037838E-1,2.4808215E-1,6.3351836E0],"split_indices":[112,106,95,0,0,0,0],"split_type":[0,0,0,0,0,0,0],"sum_hessian":[5.9601714E3,5.8620215E3,9.814982E1,5.8160093E3,4.601189E1,9.122473E1,6.9250894E0],"tree_param":{"num_deleted":"0","num_feature":"145","num_nodes":"7","size_leaf_vector":"1"}},{"base_weights":[-2.718844E-1,-4.032892E-1,4.837557E0,-2.4585184E-1,4.9695045E-1,4.0222425E0,2.3496638E-1],"categories":[],"categories_nodes":[],"categories_segments":[],"categories_sizes":[],"default_left":[0,0,0,0,0,0,0],"id":29,"left_children":[1,3,5,-1,-1,-1,-1],"loss_changes":[7.4735443E2,1.3431087E2,3.871955E2,0E0,0E0,0E0,0E0],"parents":[2147483647,0,0,1,1,2,2],"right_children":[2,4,6,-1,-1,-1,-1],"split_conditions":[1E0,1E0,1E0,-2.4585184E-1,4.9695045E-1,4.0222425E0,2.3496638E-1],"split_indices":[70,83,125,0,0,0,0],"split_type":[0,0,0,0,0,0,0],"sum_hessian":[1.1092142E3,1.0823007E3,2.691358E1,1.018498E3,6.3802708E1,1.5033434E1,1.1880146E1],"tree_param":{"num_deleted":"0","num_feature":"145","num_nodes":"7","size_leaf_vector":"1"}},{"base_weights":[-4.3735105E-1,-4.7762305E-1,3.848059E-1,-2.3260862E-1,-2.5644943E-1,8.362424E-1,-2.4886893E-1],"categories":[],"categories_nodes":[],"categories_segments":[],"categories_sizes":[],"default_left":[0,0,0,0,0,0,0],"id":30,"left_children":[1,3,5,-1,-1,-1,-1],"loss_changes":[3.573163E1,2.0950317E-1,5.8436108E1,0E0,0E0,0E0,0E0],"parents":[2147483647,0,0,1,1,2,2],"right_children":[2,4,6,-1,-1,-1,-1],"split_conditions":[1E0,1E0,1E0,-2.3260862E-1,-2.5644943E-1,8.362424E-1,-2.4886893E-1],"split_indices":[111,128,60,0,0,0,0],"split_type":[0,0,0,0,0,0,0],"sum_hessian":[1.0726317E3,1.02294366E3,4.9688114E1,7.672907E2,2.5565292E2,1.9842201E1,2.9845915E1],"tree_param":{"num_deleted":"0","num_feature":"145","num_nodes":"7","size_leaf_vector":"1"}},{"base_weights":[-4.7988924E-1,-4.9284223E-1,3.056094E-1,-2.5025174E-1,-2.1818241E-1],"categories":[],"categories_nodes":[],"categories_segments":[],"categories_sizes":[],"default_left":[0,0,0,0,0],"id":31,"left_children":[1,3,-1,-1,-1],"loss_changes":[1.5452576E1,2.4023438E-1,0E0,0E0,0E0],"parents":[2147483647,0,0,1,1],"right_children":[2,4,-1,-1,-1],"split_conditions":[1E0,1E0,3.056094E-1,-2.5025174E-1,-2.1818241E-1],"split_indices":[1,80,0,0,0],"split_type":[0,0,0,0,0],"sum_hessian":[1.0710471E3,1.0590233E3,1.2023785E1,9.256022E2,1.3342116E2],"tree_param":{"num_deleted":"0","num_feature":"145","num_nodes":"5","size_leaf_vector":"1"}},{"base_weights":[-3.2767317E-1,-4.4413713E-1,3.511988E-1,-2.5557733E-1,-6.78446E-4],"categories":[],"categories_nodes":[],"categories_segments":[],"categories_sizes":[],"default_left":[0,0,0,0,0],"id":32,"left_children":[1,3,-1,-1,-1],"loss_changes":[1.6189001E2,3.5924606E1,0E0,0E0,0E0],"parents":[2147483647,0,0,1,1],"right_children":[2,4,-1,-1,-1],"split_conditions":[1E0,1E0,3.511988E-1,-2.5557733E-1,-6.78446E-4],"split_indices":[120,39,0,0,0],"split_type":[0,0,0,0,0],"sum_hessian":[1.3458643E3,1.2096637E3,1.362006E2,1.0505083E3,1.591553E2],"tree_param":{"num_deleted":"0","num_feature":"145","num_nodes":"5","size_leaf_vector":"1"}},{"base_weights":[-3.2848853E-1,-4.6095145E-1,8.627148E-2,-2.4113093E-1,2.4136779E-1,3.1318372E-1,-2.5545722E-1],"categories":[],"categories_nodes":[],"categories_segments":[],"categories_sizes":[],"default_left":[0,0,0,0,0,0,0],"id":33,"left_children":[1,3,5,-1,-1,-1,-1],"loss_changes":[6.2449608E1,1.755066E1,8.928124E1,0E0,0E0,0E0,0E0],"parents":[2147483647,0,0,1,1,2,2],"right_children":[2,4,6,-1,-1,-1,-1],"split_conditions":[1E0,1E0,1E0,-2.4113093E-1,2.4136779E-1,3.1318372E-1,-2.5545722E-1],"split_indices":[23,20,119,0,0,0,0],"split_type":[0,0,0,0,0,0,0],"sum_hessian":[1.1349568E3,8.6014026E2,2.748165E2,8.416236E2,1.8516655E1,1.4428029E2,1.3053621E2],"tree_param":{"num_deleted":"0","num_feature":"145","num_nodes":"7","size_leaf_vector":"1"}},{"base_weights":[-3.7680957E-1,-4.5950598E-1,3.5139964E0,-2.4367914E-1,6.296404E-1,5.5160537E0,6.746334E-1],"categories":[],"categories_nodes":[],"categories_segments":[],"categories_sizes":[],"default_left":[0,0,0,0,0,0,0],"id":34,"left_children":[1,3,5,-1,-1,-1,-1],"loss_changes":[3.538119E2,5.1966843E1,3.577503E2,0E0,0E0,0E0,0E0],"parents":[2147483647,0,0,1,1,2,2],"right_children":[2,4,6,-1,-1,-1,-1],"split_conditions":[1E0,1E0,1E0,-2.4367914E-1,6.296404E-1,5.5160537E0,6.746334E-1],"split_indices":[52,78,136,0,0,0,0],"split_type":[0,0,0,0,0,0,0],"sum_hessian":[1.0936105E3,1.0717139E3,2.1896646E1,1.0553291E3,1.6384752E1,3.9795082E0,1.791714E1],"tree_param":{"num_deleted":"0","num_feature":"145","num_nodes":"7","size_leaf_vector":"1"}},{"base_weights":[6.527277E-1,-8.465972E-2,3.4142866E0,-1.9313921E-1,1.3148428E0,1.4284546E0,1.8284065E0],"categories":[],"categories_nodes":[],"categories_segments":[],"categories_sizes":[],"default_left":[0,0,0,0,0,0,0],"id":35,"left_children":[1,3,5,-1,-1,-1,-1],"loss_changes":[3.2614587E3,1.0366322E3,3.517993E1,0E0,0E0,0E0,0E0],"parents":[2147483647,0,0,1,1,2,2],"right_children":[2,4,6,-1,-1,-1,-1],"split_conditions":[1E0,1E0,1E0,-1.9313921E-1,1.3148428E0,1.4284546E0,1.8284065E0],"split_indices":[122,36,36,0,0,0,0],"split_type":[0,0,0,0,0,0,0],"sum_hessian":[1.6004868E3,1.2639564E3,3.3653046E2,1.1383234E3,1.25633064E2,1.05908905E2,2.3062155E2],"tree_param":{"num_deleted":"0","num_feature":"145","num_nodes":"7","size_leaf_vector":"1"}},{"base_weights":[-1.0577587E-1,-3.4684986E-1,2.9560742E0,-2.2828701E-1,1.0304602E0,3.5463989E0,2.5308636E-1],"categories":[],"categories_nodes":[],"categories_segments":[],"categories_sizes":[],"default_left":[0,0,0,0,0,0,0],"id":36,"left_children":[1,3,5,-1,-1,-1,-1],"loss_changes":[9.0317084E2,3.0050378E2,9.0153827E2,0E0,0E0,0E0,0E0],"parents":[2147483647,0,0,1,1,2,2],"right_children":[2,4,6,-1,-1,-1,-1],"split_conditions":[1E0,1E0,1E0,-2.2828701E-1,1.0304602E0,3.5463989E0,2.5308636E-1],"split_indices":[64,102,48,0,0,0,0],"split_type":[0,0,0,0,0,0,0],"sum_hessian":[1.2212001E3,1.132889E3,8.831101E1,1.0842875E3,4.8601547E1,3.2142467E1,5.616854E1],"tree_param":{"num_deleted":"0","num_feature":"145","num_nodes":"7","size_leaf_vector":"1"}},{"base_weights":[-2.6578449E-2,2.2370346E0,-2.6396602E-1,6.362066E-1,1.9178778E0],"categories":[],"categories_nodes":[],"categories_segments":[],"categories_sizes":[],"default_left":[0,0,0,0,0],"id":37,"left_children":[1,3,-1,-1,-1],"loss_changes":[1.5366729E3,3.737561E2,0E0,0E0,0E0],"parents":[2147483647,0,0,1,1],"right_children":[2,4,-1,-1,-1],"split_conditions":[1E0,1E0,-2.6396602E-1,6.362066E-1,1.9178778E0],"split_indices":[115,59,0,0,0],"split_type":[0,0,0,0,0],"sum_hessian":[1.3520109E3,2.4452367E2,1.1074872E3,1.5362608E2,9.0897575E1],"tree_param":{"num_deleted":"0","num_feature":"145","num_nodes":"5","size_leaf_vector":"1"}},{"base_weights":[3.963644E-1,-3.3624664E-2,5.9341283E0,-1.2309248E-1,9.264198E-1,4.559658E-1,4.2079363E0],"categories":[],"categories_nodes":[],"categories_segments":[],"categories_sizes":[],"default_left":[0,0,0,0,0,0,0],"id":38,"left_children":[1,3,5,-1,-1,-1,-1],"loss_changes":[3.2015005E3,5.0110712E2,1.1997424E3,0E0,0E0,0E0,0E0],"parents":[2147483647,0,0,1,1,2,2],"right_children":[2,4,6,-1,-1,-1,-1],"split_conditions":[1E0,1E0,1E0,-1.2309248E-1,9.264198E-1,4.559658E-1,4.2079363E0],"split_indices":[83,142,115,0,0,0,0],"split_type":[0,0,0,0,0,0,0],"sum_hessian":[1.3434192E3,1.2475453E3,9.587385E1,1.1219926E3,1.2555276E2,3.216018E1,6.371367E1],"tree_param":{"num_deleted":"0","num_feature":"145","num_nodes":"7","size_leaf_vector":"1"}},{"base_weights":[-2.970195E-1,-4.2649162E-1,2.0889726E0,-2.487041E-1,2.6286238E-1,1.263465E0,-2.3060946E-1],"categories":[],"categories_nodes":[],"categories_segments":[],"categories_sizes":[],"default_left":[0,0,0,0,0,0,0],"id":39,"left_children":[1,3,5,-1,-1,-1,-1],"loss_changes":[3.6443427E2,7.5695724E1,6.90058E1,0E0,0E0,0E0,0E0],"parents":[2147483647,0,0,1,1,2,2],"right_children":[2,4,6,-1,-1,-1,-1],"split_conditions":[1E0,1E0,1E0,-2.487041E-1,2.6286238E-1,1.263465E0,-2.3060946E-1],"split_indices":[17,83,115,0,0,0,0],"split_type":[0,0,0,0,0,0,0],"sum_hessian":[1.1758226E3,1.1160814E3,5.974115E1,1.0391667E3,7.6914635E1,5.0992985E1,8.748165E0],"tree_param":{"num_deleted":"0","num_feature":"145","num_nodes":"7","size_leaf_vector":"1"}},{"base_weights":[-4.8845968E-1,-4.629219E-1,-2.5636217E-1,-2.1078943E-1,-2.554899E-1],"categories":[],"categories_nodes":[],"categories_segments":[],"categories_sizes":[],"default_left":[0,0,0,0,0],"id":40,"left_children":[1,3,-1,-1,-1],"loss_changes":[4.1833496E-1,8.293686E-1,0E0,0E0,0E0],"parents":[2147483647,0,0,1,1],"right_children":[2,4,-1,-1,-1],"split_conditions":[1E0,1E0,-2.5636217E-1,-2.1078943E-1,-2.554899E-1],"split_indices":[119,130,0,0,0],"split_type":[0,0,0,0,0],"sum_hessian":[1.0571478E3,5.2484424E2,5.323036E2,2.8738568E2,2.3745854E2],"tree_param":{"num_deleted":"0","num_feature":"145","num_nodes":"5","size_leaf_vector":"1"}},{"base_weights":[-4.509457E-1,-3.9192393E-2,-2.5646117E-1,-1.2683365E-1,8.609352E-1],"categories":[],"categories_nodes":[],"categories_segments":[],"categories_sizes":[],"default_left":[0,0,0,0,0],"id":41,"left_children":[1,3,-1,-1,-1],"loss_changes":[2.7460602E1,5.4057945E1,0E0,0E0,0E0],"parents":[2147483647,0,0,1,1],"right_children":[2,4,-1,-1,-1],"split_conditions":[1E0,1E0,-2.5646117E-1,-1.2683365E-1,8.609352E-1],"split_indices":[115,80,0,0,0],"split_type":[0,0,0,0,0],"sum_hessian":[1.0758689E3,1.4096619E2,9.349028E2,1.2642517E2,1.454101E1],"tree_param":{"num_deleted":"0","num_feature":"145","num_nodes":"5","size_leaf_vector":"1"}},{"base_weights":[-1.3377874E-1,-2.9861692E-1,8.5273993E-1,-2.0216262E-1,4.3725554E-2,1.1882617E-1,2.342781E0],"categories":[],"categories_nodes":[],"categories_segments":[],"categories_sizes":[],"default_left":[0,0,0,0,0,0,0],"id":42,"left_children":[1,3,5,-1,-1,-1,-1],"loss_changes":[1.8639499E2,4.009192E1,3.8584793E2,0E0,0E0,0E0,0E0],"parents":[2147483647,0,0,1,1,2,2],"right_children":[2,4,6,-1,-1,-1,-1],"split_conditions":[1E0,1E0,1E0,-2.0216262E-1,4.3725554E-2,1.1882617E-1,2.342781E0],"split_indices":[80,139,6,0,0,0,0],"split_type":[0,0,0,0,0,0,0],"sum_hessian":[1.1436625E3,9.805234E2,1.6313913E2,7.6972076E2,2.1080261E2,1.4149426E2,2.1644857E1],"tree_param":{"num_deleted":"0","num_feature":"145","num_nodes":"7","size_leaf_vector":"1"}},{"base_weights":[6.533936E-2,-1.4690489E-1,2.0145454E0,-2.4512697E-2,-2.6126763E-1,4.32907E0,3.6957192E-1],"categories":[],"categories_nodes":[],"categories_segments":[],"categories_sizes":[],"default_left":[0,0,0,0,0,0,0],"id":43,"left_children":[1,3,5,-1,-1,-1,-1],"loss_changes":[6.232041E2,4.9931023E1,1.2469456E3,0E0,0E0,0E0,0E0],"parents":[2147483647,0,0,1,1,2,2],"right_children":[2,4,6,-1,-1,-1,-1],"split_conditions":[1E0,1E0,1E0,-2.4512697E-2,-2.6126763E-1,4.32907E0,3.6957192E-1],"split_indices":[81,7,85,0,0,0,0],"split_type":[0,0,0,0,0,0,0],"sum_hessian":[1.5046719E3,1.357754E3,1.4691786E2,1.0779888E3,2.7976526E2,2.2729715E1,1.2418815E2],"tree_param":{"num_deleted":"0","num_feature":"145","num_nodes":"7","size_leaf_vector":"1"}},{"base_weights":[4.1448298E-1,-4.699922E-2,2.1650653E0,-1.7580678E-1,6.177622E-1,3.0039506E0,-2.5617567E-1],"categories":[],"categories_nodes":[],"categories_segments":[],"categories_sizes":[],"default_left":[0,0,0,0,0,0,0],"id":44,"left_children":[1,3,5,-1,-1,-1,-1],"loss_changes":[1.0394789E3,3.985906E2,2.764896E3,0E0,0E0,0E0,0E0],"parents":[2147483647,0,0,1,1,2,2],"right_children":[2,4,6,-1,-1,-1,-1],"split_conditions":[1E0,1E0,1E0,-1.7580678E-1,6.177622E-1,3.0039506E0,-2.5617567E-1],"split_indices":[26,139,128,0,0,0,0],"split_type":[0,0,0,0,0,0,0],"sum_hessian":[1.2855768E3,1.0181491E3,2.6742764E2,8.2332556E2,1.9482358E2,1.0930324E2,1.581244E2],"tree_param":{"num_deleted":"0","num_feature":"145","num_nodes":"7","size_leaf_vector":"1"}},{"base_weights":[-4.807175E-1,-4.985906E-1,1.6165549E0,-2.5322458E-1,5.91343E-1,1.5636748E0,2.507447E-1],"categories":[],"categories_nodes":[],"categories_segments":[],"categories_sizes":[],"default_left":[0,0,0,0,0,0,0],"id":45,"left_children":[1,3,5,-1,-1,-1,-1],"loss_changes":[4.0991074E1,1.4653564E1,1.4089514E1,0E0,0E0,0E0,0E0],"parents":[2147483647,0,0,1,1,2,2],"right_children":[2,4,6,-1,-1,-1,-1],"split_conditions":[1E0,1E0,1E0,-2.5322458E-1,5.91343E-1,1.5636748E0,2.507447E-1],"split_indices":[90,45,76,0,0,0,0],"split_type":[0,0,0,0,0,0,0],"sum_hessian":[1.0710386E3,1.062744E3,8.294502E0,1.0584952E3,4.248802E0,2.755908E0,5.5385942E0],"tree_param":{"num_deleted":"0","num_feature":"145","num_nodes":"7","size_leaf_vector":"1"}},{"base_weights":[2.8582805E-1,-2.0878485E-1,1.9468871E0,-2.1095526E-1,9.1889405E-1,2.8799474E0,2.530603E-1],"categories":[],"categories_nodes":[],"categories_segments":[],"categories_sizes":[],"default_left":[0,0,0,0,0,0,0],"id":46,"left_children":[1,3,5,-1,-1,-1,-1],"loss_changes":[1.3116328E3,5.3757404E2,2.0093538E3,0E0,0E0,0E0,0E0],"parents":[2147483647,0,0,1,1,2,2],"right_children":[2,4,6,-1,-1,-1,-1],"split_conditions":[1E0,1E0,1E0,-2.1095526E-1,9.1889405E-1,2.8799474E0,2.530603E-1],"split_indices":[53,63,42,0,0,0,0],"split_type":[0,0,0,0,0,0,0],"sum_hessian":[1.594979E3,1.2296892E3,3.6528976E2,1.1144288E3,1.1526036E2,9.9352974E1,2.659368E2],"tree_param":{"num_deleted":"0","num_feature":"145","num_nodes":"7","size_leaf_vector":"1"}},{"base_weights":[-4.6449837E-1,-4.8802203E-1,7.518709E-1,-2.4995446E-1,-1.5746741E-1,9.179383E-2,1.7708781E0],"categories":[],"categories_nodes":[],"categories_segments":[],"categories_sizes":[],"default_left":[0,0,0,0,0,0,0],"id":47,"left_children":[1,3,5,-1,-1,-1,-1],"loss_changes":[3.0819077E1,1.9919434E0,3.1986267E1,0E0,0E0,0E0,0E0],"parents":[2147483647,0,0,1,1,2,2],"right_children":[2,4,6,-1,-1,-1,-1],"split_conditions":[1E0,1E0,1E0,-2.4995446E-1,-1.5746741E-1,9.179383E-2,1.7708781E0],"split_indices":[85,41,41,0,0,0,0],"split_type":[0,0,0,0,0,0,0],"sum_hessian":[1.0632584E3,1.0436733E3,1.9585068E1,9.748375E2,6.8835846E1,1.7156246E1,2.4288213E0],"tree_param":{"num_deleted":"0","num_feature":"145","num_nodes":"7","size_leaf_vector":"1"}},{"base_weights":[9.134093E-1,-6.039125E-1,3.0116775E0,-2.574736E-1,-6.500922E-1,2.644001E0,2.5595567E-1],"categories":[],"categories_nodes":[],"categories_segments":[],"categories_sizes":[],"default_left":[0,0,0,0,0,0,0],"id":48,"left_children":[1,3,5,-1,-1,-1,-1],"loss_changes":[6.612756E3,7.402792E1,4.956813E3,0E0,0E0,0E0,0E0],"parents":[2147483647,0,0,1,1,2,2],"right_children":[2,4,6,-1,-1,-1,-1],"split_conditions":[1E0,1E0,1E0,-2.574736E-1,-6.500922E-1,2.644001E0,2.5595567E-1],"split_indices":[26,89,89,0,0,0,0],"split_type":[0,0,0,0,0,0,0],"sum_hessian":[2.0754636E3,1.204886E3,8.705777E2,1.0699181E3,1.3496794E2,4.5506937E2,4.1550833E2],"tree_param":{"num_deleted":"0","num_feature":"145","num_nodes":"7","size_leaf_vector":"1"}},{"base_weights":[2.5744352E-1,-2.300739E-1,1.571409E0,-2.3964454E-1,6.333187E-1,3.81105E-1,1.5103619E0],"categories":[],"categories_nodes":[],"categories_segments":[],"categories_sizes":[],"default_left":[0,0,0,0,0,0,0],"id":49,"left_children":[1,3,5,-1,-1,-1,-1],"loss_changes":[1.0154636E3,4.320562E2,5.0078455E2,0E0,0E0,0E0,0E0],"parents":[2147483647,0,0,1,1,2,2],"right_children":[2,4,6,-1,-1,-1,-1],"split_conditions":[1E0,1E0,1E0,-2.3964454E-1,6.333187E-1,3.81105E-1,1.5103619E0],"split_indices":[6,7,46,0,0,0,0],"split_type":[0,0,0,0,0,0,0],"sum_hessian":[1.5836581E3,1.1556901E3,4.2796796E2,9.9130853E2,1.6438156E2,2.7561127E2,1.523567E2],"tree_param":{"num_deleted":"0","num_feature":"145","num_nodes":"7","size_leaf_vector":"1"}},{"base_weights":[-2.5322524E-1,-4.0498742E-1,1.575903E0,-2.3412935E-1,7.6078314E-1,1.3274484E0,4.2199692E-1],"categories":[],"categories_nodes":[],"categories_segments":[],"categories_sizes":[],"default_left":[0,0,0,0,0,0,0],"id":50,"left_children":[1,3,5,-1,-1,-1,-1],"loss_changes":[3.3724738E2,1.3729591E2,7.128717E1,0E0,0E0,0E0,0E0],"parents":[2147483647,0,0,1,1,2,2],"right_children":[2,4,6,-1,-1,-1,-1],"split_conditions":[1E0,1E0,1E0,-2.3412935E-1,7.6078314E-1,1.3274484E0,4.2199692E-1],"split_indices":[39,11,13,0,0,0,0],"split_type":[0,0,0,0,0,0,0],"sum_hessian":[1.2116016E3,1.119496E3,9.2105644E1,1.0846317E3,3.486419E1,3.616427E1,5.5941372E1],"tree_param":{"num_deleted":"0","num_feature":"145","num_nodes":"7","size_leaf_vector":"1"}},{"base_weights":[-2.705522E-1,-4.066809E-1,1.1211569E0,-2.3613079E-1,3.0744588E-1,8.490348E-1,-2.4814238E-1],"categories":[],"categories_nodes":[],"categories_segments":[],"categories_sizes":[],"default_left":[0,0,0,0,0,0,0],"id":51,"left_children":[1,3,5,-1,-1,-1,-1],"loss_changes":[2.2397299E2,7.233893E1,9.918086E1,0E0,0E0,0E0,0E0],"parents":[2147483647,0,0,1,1,2,2],"right_children":[2,4,6,-1,-1,-1,-1],"split_conditions":[1E0,1E0,1E0,-2.3613079E-1,3.0744588E-1,8.490348E-1,-2.4814238E-1],"split_indices":[66,47,7,0,0,0,0],"split_type":[0,0,0,0,0,0,0],"sum_hessian":[1.178811E3,1.0744249E3,1.0438608E2,1.0101173E3,6.430757E1,7.690543E1,2.7480644E1],"tree_param":{"num_deleted":"0","num_feature":"145","num_nodes":"7","size_leaf_vector":"1"}},{"base_weights":[-4.2892197E-1,-4.7066745E-1,2.2296562E0,-2.3950674E-1,8.584924E-1,2.2316678E0,2.84583E-1],"categories":[],"categories_nodes":[],"categories_segments":[],"categories_sizes":[],"default_left":[0,0,0,0,0,0,0],"id":52,"left_children":[1,3,5,-1,-1,-1,-1],"loss_changes":[1.22233536E2,2.0465546E1,6.0715225E1,0E0,0E0,0E0,0E0],"parents":[2147483647,0,0,1,1,2,2],"right_children":[2,4,6,-1,-1,-1,-1],"split_conditions":[1E0,1E0,1E0,-2.3950674E-1,8.584924E-1,2.2316678E0,2.84583E-1],"split_indices":[32,12,77,0,0,0,0],"split_type":[0,0,0,0,0,0,0],"sum_hessian":[1.0909092E3,1.0748546E3,1.6054611E1,1.0715476E3,3.3069656E0,6.1259995E0,9.928612E0],"tree_param":{"num_deleted":"0","num_feature":"145","num_nodes":"7","size_leaf_vector":"1"}},{"base_weights":[8.349645E-1,1.0018876E-1,1.9587627E1,-1.5002728E-1,1.4490762E0,1.5722816E1,-2.3807272E-1],"categories":[],"categories_nodes":[],"categories_segments":[],"categories_sizes":[],"default_left":[0,0,0,0,0,0,0],"id":53,"left_children":[1,3,5,-1,-1,-1,-1],"loss_changes":[1.7598395E4,1.378501E3,1.1472256E4,0E0,0E0,0E0,0E0],"parents":[2147483647,0,0,1,1,2,2],"right_children":[2,4,6,-1,-1,-1,-1],"split_conditions":[1E0,1E0,1E0,-1.5002728E-1,1.4490762E0,1.5722816E1,-2.3807272E-1],"split_indices":[33,86,37,0,0,0,0],"split_type":[0,0,0,0,0,0,0],"sum_hessian":[1.2763317E3,1.2291749E3,4.7156773E1,1.0761294E3,1.530455E2,2.928286E1,1.7873915E1],"tree_param":{"num_deleted":"0","num_feature":"145","num_nodes":"7","size_leaf_vector":"1"}},{"base_weights":[-2.557617E-1,-4.2821133E-1,1.3136936E0,-2.562878E-1,-1.4283149E-1,1.1272207E0,3.5575262E-1],"categories":[],"categories_nodes":[],"categories_segments":[],"categories_sizes":[],"default_left":[0,0,0,0,0,0,0],"id":54,"left_children":[1,3,5,-1,-1,-1,-1],"loss_changes":[3.227062E2,1.2759491E1,6.52899E1,0E0,0E0,0E0,0E0],"parents":[2147483647,0,0,1,1,2,2],"right_children":[2,4,6,-1,-1,-1,-1],"split_conditions":[1E0,1E0,1E0,-2.562878E-1,-1.4283149E-1,1.1272207E0,3.5575262E-1],"split_indices":[71,74,107,0,0,0,0],"split_type":[0,0,0,0,0,0,0],"sum_hessian":[1.1892505E3,1.0721692E3,1.1708133E2,6.719147E2,4.0025446E2,4.4624508E1,7.2456825E1],"tree_param":{"num_deleted":"0","num_feature":"145","num_nodes":"7","size_leaf_vector":"1"}},{"base_weights":[6.585408E-2,-2.0738825E-1,1.6029713E0,-1.812366E-1,1.6514845E-1,1.339918E0,-1.002242E-1],"categories":[],"categories_nodes":[],"categories_segments":[],"categories_sizes":[],"default_left":[0,0,0,0,0,0,0],"id":55,"left_children":[1,3,5,-1,-1,-1,-1],"loss_changes":[8.03044E2,1.3550806E2,5.6096295E2,0E0,0E0,0E0,0E0],"parents":[2147483647,0,0,1,1,2,2],"right_children":[2,4,6,-1,-1,-1,-1],"split_conditions":[1E0,1E0,1E0,-1.812366E-1,1.6514845E-1,1.339918E0,-1.002242E-1],"split_indices":[111,34,106,0,0,0,0],"split_type":[0,0,0,0,0,0,0],"sum_hessian":[1.910193E3,1.6226171E3,2.8757593E2,1.2596276E3,3.6298947E2,1.7975436E2,1.0782156E2],"tree_param":{"num_deleted":"0","num_feature":"145","num_nodes":"7","size_leaf_vector":"1"}},{"base_weights":[1.9985323E-1,-4.030565E-1,1.3975754E0,-3.9891315E-1,6.6849047E-1,9.05654E-1,2.771684E-1],"categories":[],"categories_nodes":[],"categories_segments":[],"categories_sizes":[],"default_left":[0,0,0,0,0,0,0],"id":56,"left_children":[1,3,5,-1,-1,-1,-1],"loss_changes":[2.5250613E3,1.5989507E3,4.074536E2,0E0,0E0,0E0,0E0],"parents":[2147483647,0,0,1,1,2,2],"right_children":[2,4,6,-1,-1,-1,-1],"split_conditions":[1E0,1E0,1E0,-3.9891315E-1,6.6849047E-1,9.05654E-1,2.771684E-1],"split_indices":[27,30,33,0,0,0,0],"split_type":[0,0,0,0,0,0,0],"sum_hessian":[3.4949614E3,2.3251768E3,1.1697847E3,1.8956451E3,4.2953168E2,7.8397943E2,3.858053E2],"tree_param":{"num_deleted":"0","num_feature":"145","num_nodes":"7","size_leaf_vector":"1"}},{"base_weights":[-2.4205233E-1,-3.340362E-1,9.1135883E-1,-2.0297687E-1,-8.541626E-3,8.380713E-1,-2.505804E-1],"categories":[],"categories_nodes":[],"categories_segments":[],"categories_sizes":[],"default_left":[0,0,0,0,0,0,0],"id":57,"left_children":[1,3,5,-1,-1,-1,-1],"loss_changes":[1.1856623E2,2.354155E1,9.006756E1,0E0,0E0,0E0,0E0],"parents":[2147483647,0,0,1,1,2,2],"right_children":[2,4,6,-1,-1,-1,-1],"split_conditions":[1E0,1E0,1E0,-2.0297687E-1,-8.541626E-3,8.380713E-1,-2.505804E-1],"split_indices":[112,60,142,0,0,0,0],"split_type":[0,0,0,0,0,0,0],"sum_hessian":[1.1136761E3,1.0320789E3,8.159728E1,8.409777E2,1.9110109E2,5.2814938E1,2.8782347E1],"tree_param":{"num_deleted":"0","num_feature":"145","num_nodes":"7","size_leaf_vector":"1"}},{"base_weights":[-2.728598E-1,-4.279182E-1,1.4954547E0,-2.3657848E-1,7.4338424E-1,8.2065225E-1,-2.095148E-1],"categories":[],"categories_nodes":[],"categories_segments":[],"categories_sizes":[],"default_left":[0,0,0,0,0,0,0],"id":58,"left_children":[1,3,5,-1,-1,-1,-1],"loss_changes":[2.2300621E2,6.535388E1,1.9005783E1,0E0,0E0,0E0,0E0],"parents":[2147483647,0,0,1,1,2,2],"right_children":[2,4,6,-1,-1,-1,-1],"split_conditions":[1E0,1E0,1E0,-2.3657848E-1,7.4338424E-1,8.2065225E-1,-2.095148E-1],"split_indices":[24,69,23,0,0,0,0],"split_type":[0,0,0,0,0,0,0],"sum_hessian":[8.099874E2,7.4538477E2,6.460263E1,7.289154E2,1.646938E1,6.016204E1,4.4405913E0],"tree_param":{"num_deleted":"0","num_feature":"145","num_nodes":"7","size_leaf_vector":"1"}},{"base_weights":[-4.0331587E-1,-4.5608395E-1,1.4689943E0,-2.4190621E-1,-2.0837845E-2,1.2975967E0,-2.2599623E-1],"categories":[],"categories_nodes":[],"categories_segments":[],"categories_sizes":[],"default_left":[0,0,0,0,0,0,0],"id":59,"left_children":[1,3,5,-1,-1,-1,-1],"loss_changes":[7.364714E1,8.243698E0,4.548821E1,0E0,0E0,0E0,0E0],"parents":[2147483647,0,0,1,1,2,2],"right_children":[2,4,6,-1,-1,-1,-1],"split_conditions":[1E0,1E0,1E0,-2.4190621E-1,-2.0837845E-2,1.2975967E0,-2.2599623E-1],"split_indices":[17,111,94,0,0,0,0],"split_type":[0,0,0,0,0,0,0],"sum_hessian":[7.37649E2,7.181651E2,1.9483925E1,6.7296857E2,4.5196503E1,1.2061671E1,7.4222536E0],"tree_param":{"num_deleted":"0","num_feature":"145","num_nodes":"7","size_leaf_vector":"1"}},{"base_weights":[-4.6563086E-1,-4.7469163E-1,2.344811E-1,-2.467402E-1,-1.9468531E-1],"categories":[],"categories_nodes":[],"categories_segments":[],"categories_sizes":[],"default_left":[0,0,0,0,0],"id":60,"left_children":[1,3,-1,-1,-1],"loss_changes":[6.2772064E0,9.4381714E-1,0E0,0E0,0E0],"parents":[2147483647,0,0,1,1],"right_children":[2,4,-1,-1,-1],"split_conditions":[1E0,1E0,2.344811E-1,-2.467402E-1,-1.9468531E-1],"split_indices":[16,60,0,0,0],"split_type":[0,0,0,0,0],"sum_hessian":[7.1398376E2,7.076156E2,6.3681655E0,5.7599115E2,1.3162447E2],"tree_param":{"num_deleted":"0","num_feature":"145","num_nodes":"5","size_leaf_vector":"1"}},{"base_weights":[-3.033235E-1,-4.473766E-1,6.402992E-1,-2.5439078E-1,-5.3265266E-2,3.4482113E-1,-2.0941386E-1],"categories":[],"categories_nodes":[],"categories_segments":[],"categories_sizes":[],"default_left":[0,0,0,0,0,0,0],"id":61,"left_children":[1,3,5,-1,-1,-1,-1],"loss_changes":[1.2731758E2,1.6926865E1,6.7785873E0,0E0,0E0,0E0,0E0],"parents":[2147483647,0,0,1,1,2,2],"right_children":[2,4,6,-1,-1,-1,-1],"split_conditions":[1E0,1E0,1E0,-2.5439078E-1,-5.3265266E-2,3.4482113E-1,-2.0941386E-1],"split_indices":[8,39,26,0,0,0,0],"split_type":[0,0,0,0,0,0,0],"sum_hessian":[9.3352094E2,8.103405E2,1.2318041E2,6.8622186E2,1.2411863E2,1.1803042E2,5.149994E0],"tree_param":{"num_deleted":"0","num_feature":"145","num_nodes":"7","size_leaf_vector":"1"}},{"base_weights":[-2.8130913E-1,-4.287123E-1,2.8889852E0,-2.4312317E-1,6.2089574E-1,2.936612E0,2.405971E-1],"categories":[],"categories_nodes":[],"categories_segments":[],"categories_sizes":[],"default_left":[0,0,0,0,0,0,0],"id":62,"left_children":[1,3,5,-1,-1,-1,-1],"loss_changes":[3.745155E2,7.404759E1,2.5310641E2,0E0,0E0,0E0,0E0],"parents":[2147483647,0,0,1,1,2,2],"right_children":[2,4,6,-1,-1,-1,-1],"split_conditions":[1E0,1E0,1E0,-2.4312317E-1,6.2089574E-1,2.936612E0,2.405971E-1],"split_indices":[21,94,20,0,0,0,0],"split_type":[0,0,0,0,0,0,0],"sum_hessian":[7.9777545E2,7.6315717E2,3.461831E1,7.384336E2,2.4723566E1,1.4815982E1,1.9802326E1],"tree_param":{"num_deleted":"0","num_feature":"145","num_nodes":"7","size_leaf_vector":"1"}},{"base_weights":[-3.9301753E-1,2.0397422E-1,-2.551462E-1,4.195907E-1,-2.5375184E-1],"categories":[],"categories_nodes":[],"categories_segments":[],"categories_sizes":[],"default_left":[0,0,0,0,0],"id":63,"left_children":[1,3,-1,-1,-1],"loss_changes":[5.2546097E1,5.6329895E1,0E0,0E0,0E0],"parents":[2147483647,0,0,1,1],"right_children":[2,4,-1,-1,-1],"split_conditions":[1E0,1E0,-2.551462E-1,4.195907E-1,-2.5375184E-1],"split_indices":[115,119,0,0,0],"split_type":[0,0,0,0,0],"sum_hessian":[7.480415E2,1.2269898E2,6.253425E2,6.472925E1,5.7969734E1],"tree_param":{"num_deleted":"0","num_feature":"145","num_nodes":"5","size_leaf_vector":"1"}},{"base_weights":[6.4677644E-1,-1.6132886E-2,1.8316371E0,-1.447686E-1,9.5931447E-1,1.1267124E0,-2.5153577E-1],"categories":[],"categories_nodes":[],"categories_segments":[],"categories_sizes":[],"default_left":[0,0,0,0,0,0,0],"id":64,"left_children":[1,3,5,-1,-1,-1,-1],"loss_changes":[1.021819E3,4.4233746E2,4.6073474E2,0E0,0E0,0E0,0E0],"parents":[2147483647,0,0,1,1,2,2],"right_children":[2,4,6,-1,-1,-1,-1],"split_conditions":[1E0,1E0,1E0,-1.447686E-1,9.5931447E-1,1.1267124E0,-2.5153577E-1],"split_indices":[79,127,26,0,0,0,0],"split_type":[0,0,0,0,0,0,0],"sum_hessian":[1.2998882E3,8.341705E2,4.6571774E2,7.316326E2,1.02537834E2,3.9448502E2,7.123275E1],"tree_param":{"num_deleted":"0","num_feature":"145","num_nodes":"7","size_leaf_vector":"1"}},{"base_weights":[-1.0218131E-1,-4.2445314E-1,1.1400937E0,-2.3662679E-1,2.1226604E-1,6.8496746E-1,-2.4485847E-1],"categories":[],"categories_nodes":[],"categories_segments":[],"categories_sizes":[],"default_left":[0,0,0,0,0,0,0],"id":65,"left_children":[1,3,5,-1,-1,-1,-1],"loss_changes":[3.7529156E2,3.1029037E1,7.301077E1,0E0,0E0,0E0,0E0],"parents":[2147483647,0,0,1,1,2,2],"right_children":[2,4,6,-1,-1,-1,-1],"split_conditions":[1E0,1E0,1E0,-2.3662679E-1,2.1226604E-1,6.8496746E-1,-2.4485847E-1],"split_indices":[41,102,134,0,0,0,0],"split_type":[0,0,0,0,0,0,0],"sum_hessian":[9.351994E2,7.430859E2,1.9211351E2,7.0311285E2,3.9973015E1,1.6850925E2,2.360427E1],"tree_param":{"num_deleted":"0","num_feature":"145","num_nodes":"7","size_leaf_vector":"1"}},{"base_weights":[-2.4129918E-2,9.104027E-1,-5.2010334E-1,7.53979E-2,7.0383614E-1,-2.5513104E-1,-2.8247523E-1],"categories":[],"categories_nodes":[],"categories_segments":[],"categories_sizes":[],"default_left":[0,0,0,0,0,0,0],"id":66,"left_children":[1,3,5,-1,-1,-1,-1],"loss_changes":[5.1384314E2,1.4497809E2,3.135681E-2,0E0,0E0,0E0,0E0],"parents":[2147483647,0,0,1,1,2,2],"right_children":[2,4,6,-1,-1,-1,-1],"split_conditions":[1E0,1E0,1E0,7.53979E-2,7.0383614E-1,-2.5513104E-1,-2.8247523E-1],"split_indices":[115,128,95,0,0,0,0],"split_type":[0,0,0,0,0,0,0],"sum_hessian":[1.1065857E3,3.8337668E2,7.23209E2,1.5219446E2,2.311822E2,6.032166E2,1.1999238E2],"tree_param":{"num_deleted":"0","num_feature":"145","num_nodes":"7","size_leaf_vector":"1"}},{"base_weights":[1.112872E-1,-1.5745123E-1,1.4707247E0,-1.7364301E-1,1.9272283E-1,1.0704547E0,-2.511181E-1],"categories":[],"categories_nodes":[],"categories_segments":[],"categories_sizes":[],"default_left":[0,0,0,0,0,0,0],"id":67,"left_children":[1,3,5,-1,-1,-1,-1],"loss_changes":[4.9416962E2,1.1656842E2,2.9627304E2,0E0,0E0,0E0,0E0],"parents":[2147483647,0,0,1,1,2,2],"right_children":[2,4,6,-1,-1,-1,-1],"split_conditions":[1E0,1E0,1E0,-1.7364301E-1,1.9272283E-1,1.0704547E0,-2.511181E-1],"split_indices":[87,128,18,0,0,0,0],"split_type":[0,0,0,0,0,0,0],"sum_hessian":[1.351021E3,1.1287666E3,2.2225441E2,8.365948E2,2.9217184E2,1.6583699E2,5.6417423E1],"tree_param":{"num_deleted":"0","num_feature":"145","num_nodes":"7","size_leaf_vector":"1"}},{"base_weights":[-2.4164322E-1,-4.0467486E-1,2.7010796E0,-2.382845E-1,1.180604E0,2.5072346E0,2.6659763E-1],"categories":[],"categories_nodes":[],"categories_segments":[],"categories_sizes":[],"default_left":[0,0,0,0,0,0,0],"id":68,"left_children":[1,3,5,-1,-1,-1,-1],"loss_changes":[3.862178E2,1.5254626E2,2.09314E2,0E0,0E0,0E0,0E0],"parents":[2147483647,0,0,1,1,2,2],"right_children":[2,4,6,-1,-1,-1,-1],"split_conditions":[1E0,1E0,1E0,-2.382845E-1,1.180604E0,2.5072346E0,2.6659763E-1],"split_indices":[3,109,136,0,0,0,0],"split_type":[0,0,0,0,0,0,0],"sum_hessian":[8.017498E2,7.604804E2,4.1269367E1,7.420206E2,1.8459795E1,1.9329466E1,2.19399E1],"tree_param":{"num_deleted":"0","num_feature":"145","num_nodes":"7","size_leaf_vector":"1"}},{"base_weights":[-4.734347E-1,-4.622917E-1,-2.5425142E-1,-2.2180454E-1,-2.531752E-1],"categories":[],"categories_nodes":[],"categories_segments":[],"categories_sizes":[],"default_left":[0,0,0,0,0],"id":69,"left_children":[1,3,-1,-1,-1],"loss_changes":[4.058838E-2,2.2509766E-1,0E0,0E0,0E0],"parents":[2147483647,0,0,1,1],"right_children":[2,4,-1,-1,-1],"split_conditions":[1E0,1E0,-2.5425142E-1,-2.2180454E-1,-2.531752E-1],"split_indices":[121,139,0,0,0],"split_type":[0,0,0,0,0],"sum_hessian":[7.044656E2,5.453588E2,1.5910675E2,3.9073898E2,1.5461989E2],"tree_param":{"num_deleted":"0","num_feature":"145","num_nodes":"5","size_leaf_vector":"1"}},{"base_weights":[-4.268532E-1,3.6454473E-2,-2.5504023E-1,-1.1490388E-1,7.2658974E-1],"categories":[],"categories_nodes":[],"categories_segments":[],"categories_sizes":[],"default_left":[0,0,0,0,0],"id":70,"left_children":[1,3,-1,-1,-1],"loss_changes":[2.8072113E1,4.247818E1,0E0,0E0,0E0],"parents":[2147483647,0,0,1,1],"right_children":[2,4,-1,-1,-1],"split_conditions":[1E0,1E0,-2.5504023E-1,-1.1490388E-1,7.2658974E-1],"split_indices":[115,87,0,0,0],"split_type":[0,0,0,0,0],"sum_hessian":[7.265319E2,1.107231E2,6.158088E2,9.391105E1,1.681205E1],"tree_param":{"num_deleted":"0","num_feature":"145","num_nodes":"5","size_leaf_vector":"1"}},{"base_weights":[-5.8642194E-2,-3.6626282E-1,3.4248352E0,-2.2810972E-1,1.340566E0,2.1405056E0,2.393586E-1],"categories":[],"categories_nodes":[],"categories_segments":[],"categories_sizes":[],"default_left":[0,0,0,0,0,0,0],"id":71,"left_children":[1,3,5,-1,-1,-1,-1],"loss_changes":[9.5764014E2,2.2628027E2,1.8086493E2,0E0,0E0,0E0,0E0],"parents":[2147483647,0,0,1,1,2,2],"right_children":[2,4,6,-1,-1,-1,-1],"split_conditions":[1E0,1E0,1E0,-2.2810972E-1,1.340566E0,2.1405056E0,2.393586E-1],"split_indices":[82,65,103,0,0,0,0],"split_type":[0,0,0,0,0,0,0],"sum_hessian":[8.9149274E2,8.199767E2,7.1516045E1,7.9729156E2,2.268511E1,5.5061447E1,1.6454596E1],"tree_param":{"num_deleted":"0","num_feature":"145","num_nodes":"7","size_leaf_vector":"1"}},{"base_weights":[1.764762E-2,-1.7996131E-1,1.0388246E0,4.2390425E-2,-2.6063415E-1,6.528231E-1,-2.5042486E-1],"categories":[],"categories_nodes":[],"categories_segments":[],"categories_sizes":[],"default_left":[0,0,0,0,0,0,0],"id":72,"left_children":[1,3,5,-1,-1,-1,-1],"loss_changes":[2.5668658E2,9.635356E1,8.538045E1,0E0,0E0,0E0,0E0],"parents":[2147483647,0,0,1,1,2,2],"right_children":[2,4,6,-1,-1,-1,-1],"split_conditions":[1E0,1E0,1E0,4.2390425E-2,-2.6063415E-1,6.528231E-1,-2.5042486E-1],"split_indices":[49,119,79,0,0,0,0],"split_type":[0,0,0,0,0,0,0],"sum_hessian":[1.2700985E3,1.0648602E3,2.0523834E2,6.001176E2,4.6474255E2,1.7505394E2,3.0184399E1],"tree_param":{"num_deleted":"0","num_feature":"145","num_nodes":"7","size_leaf_vector":"1"}},{"base_weights":[1.3251653E-1,-1.6963251E-1,1.9701077E0,-1.72249E-1,1.8762615E-1,2.0089185E0,6.213165E-1],"categories":[],"categories_nodes":[],"categories_segments":[],"categories_sizes":[],"default_left":[0,0,0,0,0,0,0],"id":73,"left_children":[1,3,5,-1,-1,-1,-1],"loss_changes":[8.6659467E2,1.2788293E2,3.2331818E2,0E0,0E0,0E0,0E0],"parents":[2147483647,0,0,1,1,2,2],"right_children":[2,4,6,-1,-1,-1,-1],"split_conditions":[1E0,1E0,1E0,-1.72249E-1,1.8762615E-1,2.0089185E0,6.213165E-1],"split_indices":[95,114,26,0,0,0,0],"split_type":[0,0,0,0,0,0,0],"sum_hessian":[1.5591932E3,1.3398018E3,2.1939151E2,1.01457135E3,3.252304E2,5.6324295E1,1.6306721E2],"tree_param":{"num_deleted":"0","num_feature":"145","num_nodes":"7","size_leaf_vector":"1"}},{"base_weights":[-4.625679E-1,-4.8741695E-1,1.4086884E0,-2.4876033E-1,2.799653E-1,1.274629E0,2.5936368E-1],"categories":[],"categories_nodes":[],"categories_segments":[],"categories_sizes":[],"default_left":[0,0,0,0,0,0,0],"id":74,"left_children":[1,3,5,-1,-1,-1,-1],"loss_changes":[3.3899246E1,7.7458344E0,8.440243E0,0E0,0E0,0E0,0E0],"parents":[2147483647,0,0,1,1,2,2],"right_children":[2,4,6,-1,-1,-1,-1],"split_conditions":[1E0,1E0,1E0,-2.4876033E-1,2.799653E-1,1.274629E0,2.5936368E-1],"split_indices":[90,76,76,0,0,0,0],"split_type":[0,0,0,0,0,0,0],"sum_hessian":[7.1326666E2,7.046489E2,8.617747E0,6.984361E2,6.21281E0,2.9598973E0,5.65785E0],"tree_param":{"num_deleted":"0","num_feature":"145","num_nodes":"7","size_leaf_vector":"1"}},{"base_weights":[2.0306244E-1,-1.720307E-1,1.1328117E0,-1.7133816E-1,5.7861286E-1,1.0679884E0,4.410038E-1],"categories":[],"categories_nodes":[],"categories_segments":[],"categories_sizes":[],"default_left":[0,0,0,0,0,0,0],"id":75,"left_children":[1,3,5,-1,-1,-1,-1],"loss_changes":[4.5458548E2,2.1118268E2,9.238425E1,0E0,0E0,0E0,0E0],"parents":[2147483647,0,0,1,1,2,2],"right_children":[2,4,6,-1,-1,-1,-1],"split_conditions":[1E0,1E0,1E0,-1.7133816E-1,5.7861286E-1,1.0679884E0,4.410038E-1],"split_indices":[44,99,53,0,0,0,0],"split_type":[0,0,0,0,0,0,0],"sum_hessian":[1.3019398E3,9.282618E2,3.736781E2,8.233101E2,1.0495167E2,7.323531E1,3.0044278E2],"tree_param":{"num_deleted":"0","num_feature":"145","num_nodes":"7","size_leaf_vector":"1"}},{"base_weights":[-4.419734E-1,-4.7593555E-1,2.4088147E0,-2.482098E-1,3.8422963E-1],"categories":[],"categories_nodes":[],"categories_segments":[],"categories_sizes":[],"default_left":[0,0,0,0,0],"id":76,"left_children":[1,3,-1,-1,-1],"loss_changes":[1.3034052E2,1.8559906E1,0E0,0E0,0E0],"parents":[2147483647,0,0,1,1],"right_children":[2,4,-1,-1,-1],"split_conditions":[1E0,1E0,2.4088147E0,-2.482098E-1,3.8422963E-1],"split_indices":[0,89,0,0,0],"split_type":[0,0,0,0,0],"sum_hessian":[7.158417E2,7.121527E2,3.6889825E0,7.012111E2,1.0941594E1],"tree_param":{"num_deleted":"0","num_feature":"145","num_nodes":"5","size_leaf_vector":"1"}},{"base_weights":[3.483051E-1,-3.1485708E-4,1.0285578E0,-1.5680896E-1,4.0572387E-1,5.229682E-1,-2.3194662E-1],"categories":[],"categories_nodes":[],"categories_segments":[],"categories_sizes":[],"default_left":[0,0,0,0,0,0,0],"id":77,"left_children":[1,3,5,-1,-1,-1,-1],"loss_changes":[6.1911414E2,4.3949432E2,2.3428345E1,0E0,0E0,0E0,0E0],"parents":[2147483647,0,0,1,1,2,2],"right_children":[2,4,6,-1,-1,-1,-1],"split_conditions":[1E0,1E0,1E0,-1.5680896E-1,4.0572387E-1,5.229682E-1,-2.3194662E-1],"split_indices":[87,79,142,0,0,0,0],"split_type":[0,0,0,0,0,0,0],"sum_hessian":[2.6096458E3,1.7260624E3,8.8358325E2,1.2458394E3,4.8022308E2,8.737087E2,9.874544E0],"tree_param":{"num_deleted":"0","num_feature":"145","num_nodes":"7","size_leaf_vector":"1"}},{"base_weights":[3.0014905E-1,-1.2732579E-1,2.6122525E0,-1.9147323E-1,5.265373E-1,1.9542216E0,2.5473136E-1],"categories":[],"categories_nodes":[],"categories_segments":[],"categories_sizes":[],"default_left":[0,0,0,0,0,0,0],"id":78,"left_children":[1,3,5,-1,-1,-1,-1],"loss_changes":[1.2733629E3,3.2868796E2,5.4592334E2,0E0,0E0,0E0,0E0],"parents":[2147483647,0,0,1,1,2,2],"right_children":[2,4,6,-1,-1,-1,-1],"split_conditions":[1E0,1E0,1E0,-1.9147323E-1,5.265373E-1,1.9542216E0,2.5473136E-1],"split_indices":[66,46,71,0,0,0,0],"split_type":[0,0,0,0,0,0,0],"sum_hessian":[1.2870151E3,1.086991E3,2.0002415E2,8.940552E2,1.9293585E2,1.23214325E2,7.680983E1],"tree_param":{"num_deleted":"0","num_feature":"145","num_nodes":"7","size_leaf_vector":"1"}},{"base_weights":[-2.3617007E-1,-4.1912946E-1,1.2880304E0,-2.3417853E-1,9.417519E-2,7.4707985E-1,-2.2558749E-1],"categories":[],"categories_nodes":[],"categories_segments":[],"categories_sizes":[],"default_left":[0,0,0,0,0,0,0],"id":79,"left_children":[1,3,5,-1,-1,-1,-1],"loss_changes":[2.3123683E2,2.2198654E1,3.254669E1,0E0,0E0,0E0,0E0],"parents":[2147483647,0,0,1,1,2,2],"right_children":[2,4,6,-1,-1,-1,-1],"split_conditions":[1E0,1E0,1E0,-2.3417853E-1,9.417519E-2,7.4707985E-1,-2.2558749E-1],"split_indices":[89,68,26,0,0,0,0],"split_type":[0,0,0,0,0,0,0],"sum_hessian":[8.262658E2,7.383607E2,8.7905075E1,6.832241E2,5.5136574E1,7.8716545E1,9.188528E0],"tree_param":{"num_deleted":"0","num_feature":"145","num_nodes":"7","size_leaf_vector":"1"}},{"base_weights":[-2.3355174E-1,-3.605971E-1,2.0887324E-1,-2.2870433E-1,-1.0492986E-1,7.092779E-1,7.826872E-3],"categories":[],"categories_nodes":[],"categories_segments":[],"categories_sizes":[],"default_left":[0,0,0,0,0,0,0],"id":80,"left_children":[1,3,5,-1,-1,-1,-1],"loss_changes":[4.86417E1,9.705467E0,4.5181248E1,0E0,0E0,0E0,0E0],"parents":[2147483647,0,0,1,1,2,2],"right_children":[2,4,6,-1,-1,-1,-1],"split_conditions":[1E0,1E0,1E0,-2.2870433E-1,-1.0492986E-1,7.092779E-1,7.826872E-3],"split_indices":[46,130,115,0,0,0,0],"split_type":[0,0,0,0,0,0,0],"sum_hessian":[8.6304675E2,6.7064996E2,1.9239679E2,4.071331E2,2.635169E2,2.5625078E1,1.6677171E2],"tree_param":{"num_deleted":"0","num_feature":"145","num_nodes":"7","size_leaf_vector":"1"}},{"base_weights":[-3.86652E-1,-4.498533E-1,1.6085113E0,-2.3226197E-1,8.5208994E-1,1.2647597E0,3.2498217E-1],"categories":[],"categories_nodes":[],"categories_segments":[],"categories_sizes":[],"default_left":[0,0,0,0,0,0,0],"id":81,"left_children":[1,3,5,-1,-1,-1,-1],"loss_changes":[9.512249E1,2.3747116E1,1.8841686E1,0E0,0E0,0E0,0E0],"parents":[2147483647,0,0,1,1,2,2],"right_children":[2,4,6,-1,-1,-1,-1],"split_conditions":[1E0,1E0,1E0,-2.3226197E-1,8.5208994E-1,1.2647597E0,3.2498217E-1],"split_indices":[100,12,4,0,0,0,0],"split_type":[0,0,0,0,0,0,0],"sum_hessian":[7.476215E2,7.254168E2,2.220469E1,7.2128864E2,4.1281824E0,1.0488262E1,1.1716428E1],"tree_param":{"num_deleted":"0","num_feature":"145","num_nodes":"7","size_leaf_vector":"1"}},{"base_weights":[-1.8591907E0,-1.0914294E0,-3.3316855E0,-3.632734E-1,-1.3968037E0,-2.7266026E0,-2.6881066E-1],"categories":[],"categories_nodes":[],"categories_segments":[],"categories_sizes":[],"default_left":[0,0,0,0,0,0,0],"id":82,"left_children":[1,3,5,-1,-1,-1,-1],"loss_changes":[1.49148E3,5.387887E2,2.6808042E3,0E0,0E0,0E0,0E0],"parents":[2147483647,0,0,1,1,2,2],"right_children":[2,4,6,-1,-1,-1,-1],"split_conditions":[1E0,1E0,1E0,-3.632734E-1,-1.3968037E0,-2.7266026E0,-2.6881066E-1],"split_indices":[93,124,37,0,0,0,0],"split_type":[0,0,0,0,0,0,0],"sum_hessian":[1.3214974E3,8.6974963E2,4.5174783E2,7.1739435E2,1.5235533E2,2.5623676E2,1.9551106E2],"tree_param":{"num_deleted":"0","num_feature":"145","num_nodes":"7","size_leaf_vector":"1"}},{"base_weights":[-2.0468839E-1,9.617426E-1,-2.55211E-1,2.4373987E-1,1.0836982E0],"categories":[],"categories_nodes":[],"categories_segments":[],"categories_sizes":[],"default_left":[0,0,0,0,0],"id":83,"left_children":[1,3,-1,-1,-1],"loss_changes":[2.960196E2,9.754869E1,0E0,0E0,0E0],"parents":[2147483647,0,0,1,1],"right_children":[2,4,-1,-1,-1],"split_conditions":[1E0,1E0,-2.55211E-1,2.4373987E-1,1.0836982E0],"split_indices":[115,79,0,0,0],"split_type":[0,0,0,0,0],"sum_hessian":[8.2770026E2,1.7144806E2,6.562522E2,1.2405386E2,4.7394203E1],"tree_param":{"num_deleted":"0","num_feature":"145","num_nodes":"5","size_leaf_vector":"1"}},{"base_weights":[1.2585177E-1,-1.4393896E-1,1.2498417E0,-1.9961725E-1,1.7283857E-1,9.048901E-1,-1.0353234E-3],"categories":[],"categories_nodes":[],"categories_segments":[],"categories_sizes":[],"default_left":[0,0,0,0,0,0,0],"id":84,"left_children":[1,3,5,-1,-1,-1,-1],"loss_changes":[4.8563226E2,1.6162059E2,2.1729828E2,0E0,0E0,0E0,0E0],"parents":[2147483647,0,0,1,1,2,2],"right_children":[2,4,6,-1,-1,-1,-1],"split_conditions":[1E0,1E0,1E0,-1.9961725E-1,1.7283857E-1,9.048901E-1,-1.0353234E-3],"split_indices":[112,60,106,0,0,0,0],"split_type":[0,0,0,0,0,0,0],"sum_hessian":[1.5998743E3,1.2908937E3,3.0898062E2,8.4860095E2,4.422928E2,2.1318463E2,9.5795975E1],"tree_param":{"num_deleted":"0","num_feature":"145","num_nodes":"7","size_leaf_vector":"1"}},{"base_weights":[1.6332752E0,5.5094105E-1,1.158784E1,3.7079796E-2,7.7212876E-1,4.7199492E0,6.7388124E0],"categories":[],"categories_nodes":[],"categories_segments":[],"categories_sizes":[],"default_left":[0,0,0,0,0,0,0],"id":85,"left_children":[1,3,5,-1,-1,-1,-1],"loss_changes":[2.4997549E4,9.9168677E2,7.963613E2,0E0,0E0,0E0,0E0],"parents":[2147483647,0,0,1,1,2,2],"right_children":[2,4,6,-1,-1,-1,-1],"split_conditions":[1E0,1E0,1E0,3.7079796E-2,7.7212876E-1,4.7199492E0,6.7388124E0],"split_indices":[33,30,30,0,0,0,0],"split_type":[0,0,0,0,0,0,0],"sum_hessian":[2.3197305E3,2.0931978E3,2.2653264E2,1.415059E3,6.7813885E2,1.08830475E2,1.17702156E2],"tree_param":{"num_deleted":"0","num_feature":"145","num_nodes":"7","size_leaf_vector":"1"}},{"base_weights":[-1.7080092E-1,-3.4006783E-1,4.210438E0,-2.1042015E-1,1.3739409E-1,3.1315417E0,-2.3006679E-1],"categories":[],"categories_nodes":[],"categories_segments":[],"categories_sizes":[],"default_left":[0,0,0,0,0,0,0],"id":86,"left_children":[1,3,5,-1,-1,-1,-1],"loss_changes":[6.232178E2,4.0252502E1,3.025963E2,0E0,0E0,0E0,0E0],"parents":[2147483647,0,0,1,1,2,2],"right_children":[2,4,6,-1,-1,-1,-1],"split_conditions":[1E0,1E0,1E0,-2.1042015E-1,1.3739409E-1,3.1315417E0,-2.3006679E-1],"split_indices":[106,108,114,0,0,0,0],"split_type":[0,0,0,0,0,0,0],"sum_hessian":[8.374397E2,8.0717725E2,3.0262497E1,7.1373126E2,9.344597E1,2.0786276E1,9.476221E0],"tree_param":{"num_deleted":"0","num_feature":"145","num_nodes":"7","size_leaf_vector":"1"}},{"base_weights":[-2.4830298E-1,-4.5564634E-1,1.1266785E0,-2.478003E-1,5.873875E-1,6.4497435E-1,-2.2148326E-1],"categories":[],"categories_nodes":[],"categories_segments":[],"categories_sizes":[],"default_left":[0,0,0,0,0,0,0],"id":87,"left_children":[1,3,5,-1,-1,-1,-1],"loss_changes":[1.7207478E2,3.4692703E1,2.0853767E1,0E0,0E0,0E0,0E0],"parents":[2147483647,0,0,1,1,2,2],"right_children":[2,4,6,-1,-1,-1,-1],"split_conditions":[1E0,1E0,1E0,-2.478003E-1,5.873875E-1,6.4497435E-1,-2.2148326E-1],"split_indices":[83,24,115,0,0,0,0],"split_type":[0,0,0,0,0,0,0],"sum_hessian":[6.007729E2,5.226303E2,7.814258E1,5.1080875E2,1.1821585E1,7.094161E1,7.2009635E0],"tree_param":{"num_deleted":"0","num_feature":"145","num_nodes":"7","size_leaf_vector":"1"}},{"base_weights":[-3.7472564E-1,-4.2202392E-1,8.9718914E-1,-2.3260711E-1,2.6775526E-2,7.53665E-1,-2.2040157E-1],"categories":[],"categories_nodes":[],"categories_segments":[],"categories_sizes":[],"default_left":[0,0,0,0,0,0,0],"id":88,"left_children":[1,3,5,-1,-1,-1,-1],"loss_changes":[3.4336044E1,1.121727E1,1.744694E1,0E0,0E0,0E0,0E0],"parents":[2147483647,0,0,1,1,2,2],"right_children":[2,4,6,-1,-1,-1,-1],"split_conditions":[1E0,1E0,1E0,-2.3260711E-1,2.6775526E-2,7.53665E-1,-2.2040157E-1],"split_indices":[82,111,119,0,0,0,0],"split_type":[0,0,0,0,0,0,0],"sum_hessian":[5.634576E2,5.4389996E2,1.955763E1,4.9863702E2,4.5262947E1,1.3345404E1,6.212228E0],"tree_param":{"num_deleted":"0","num_feature":"145","num_nodes":"7","size_leaf_vector":"1"}},{"base_weights":[-4.5122716E-1,-4.686279E-1,2.7698258E-1,-2.1873146E-1,-2.5358188E-1],"categories":[],"categories_nodes":[],"categories_segments":[],"categories_sizes":[],"default_left":[0,0,0,0,0],"id":89,"left_children":[1,3,-1,-1,-1],"loss_changes":[9.487015E0,4.015808E-1,0E0,0E0,0E0],"parents":[2147483647,0,0,1,1],"right_children":[2,4,-1,-1,-1],"split_conditions":[1E0,1E0,2.7698258E-1,-2.1873146E-1,-2.5358188E-1],"split_indices":[1,130,0,0,0],"split_type":[0,0,0,0,0],"sum_hessian":[5.265499E2,5.1811475E2,8.435207E0,2.9328204E2,2.2483269E2],"tree_param":{"num_deleted":"0","num_feature":"145","num_nodes":"5","size_leaf_vector":"1"}},{"base_weights":[-2.994784E-1,-4.3190426E-1,7.0039564E-1,-2.520665E-1,2.5943303E-1,3.0004236E-1,3.8833752E-1],"categories":[],"categories_nodes":[],"categories_segments":[],"categories_sizes":[],"default_left":[0,0,0,0,0,0,0],"id":90,"left_children":[1,3,5,-1,-1,-1,-1],"loss_changes":[9.249715E1,4.252784E1,1.5994263E-1,0E0,0E0,0E0,0E0],"parents":[2147483647,0,0,1,1,2,2],"right_children":[2,4,6,-1,-1,-1,-1],"split_conditions":[1E0,1E0,1E0,-2.520665E-1,2.5943303E-1,3.0004236E-1,3.8833752E-1],"split_indices":[131,8,8,0,0,0,0],"split_type":[0,0,0,0,0,0,0],"sum_hessian":[6.952859E2,6.1447174E2,8.081414E1,5.715236E2,4.29481E1,3.8738358E1,4.2075787E1],"tree_param":{"num_deleted":"0","num_feature":"145","num_nodes":"7","size_leaf_vector":"1"}},{"base_weights":[-2.8797257E-1,-4.4438562E-1,1.2377732E0,-2.3983312E-1,3.89168E-1,1.157492E0,4.355592E-1],"categories":[],"categories_nodes":[],"categories_segments":[],"categories_sizes":[],"default_left":[0,0,0,0,0,0,0],"id":91,"left_children":[1,3,5,-1,-1,-1,-1],"loss_changes":[1.5101544E2,2.5074585E1,2.1242752E1,0E0,0E0,0E0,0E0],"parents":[2147483647,0,0,1,1,2,2],"right_children":[2,4,6,-1,-1,-1,-1],"split_conditions":[1E0,1E0,1E0,-2.3983312E-1,3.89168E-1,1.157492E0,4.355592E-1],"split_indices":[5,21,21,0,0,0,0],"split_type":[0,0,0,0,0,0,0],"sum_hessian":[6.2949475E2,5.716049E2,5.78898E1,5.56165E2,1.5439974E1,1.335113E1,4.453867E1],"tree_param":{"num_deleted":"0","num_feature":"145","num_nodes":"7","size_leaf_vector":"1"}},{"base_weights":[-3.7364712E-1,-4.392294E-1,2.2223544E0,-2.299294E-1,6.437803E-1,1.3424944E0,7.3089606E-1],"categories":[],"categories_nodes":[],"categories_segments":[],"categories_sizes":[],"default_left":[0,0,0,0,0,0,0],"id":92,"left_children":[1,3,5,-1,-1,-1,-1],"loss_changes":[9.637976E1,2.0091782E1,9.915695E-1,0E0,0E0,0E0,0E0],"parents":[2147483647,0,0,1,1,2,2],"right_children":[2,4,6,-1,-1,-1,-1],"split_conditions":[1E0,1E0,1E0,-2.299294E-1,6.437803E-1,1.3424944E0,7.3089606E-1],"split_indices":[135,52,52,0,0,0,0],"split_type":[0,0,0,0,0,0,0],"sum_hessian":[5.593682E2,5.4639557E2,1.2972678E1,5.4067004E2,5.7255206E0,6.4929085E0,6.4797697E0],"tree_param":{"num_deleted":"0","num_feature":"145","num_nodes":"7","size_leaf_vector":"1"}},{"base_weights":[4.0306196E-1,-7.1221806E-2,1.1115241E0,-1.6106728E-1,7.842264E-1,6.4488834E-1,5.215757E-1],"categories":[],"categories_nodes":[],"categories_segments":[],"categories_sizes":[],"default_left":[0,0,0,0,0,0,0],"id":93,"left_children":[1,3,5,-1,-1,-1,-1],"loss_changes":[4.4704987E2,3.2870758E2,5.156433E0,0E0,0E0,0E0,0E0],"parents":[2147483647,0,0,1,1,2,2],"right_children":[2,4,6,-1,-1,-1,-1],"split_conditions":[1E0,1E0,1E0,-1.6106728E-1,7.842264E-1,6.4488834E-1,5.215757E-1],"split_indices":[36,40,122,0,0,0,0],"split_type":[0,0,0,0,0,0,0],"sum_hessian":[1.329222E3,7.967398E2,5.3248224E2,6.916959E2,1.0504388E2,1.426692E2,3.8981305E2],"tree_param":{"num_deleted":"0","num_feature":"145","num_nodes":"7","size_leaf_vector":"1"}},{"base_weights":[-8.457828E-2,-3.2010078E-1,1.0689309E0,-2.2183508E-1,2.6204067E-1,6.204808E-1,-2.558265E-1],"categories":[],"categories_nodes":[],"categories_segments":[],"categories_sizes":[],"default_left":[0,0,0,0,0,0,0],"id":94,"left_children":[1,3,5,-1,-1,-1,-1],"loss_changes":[1.994056E2,6.3786522E1,3.447934E1,0E0,0E0,0E0,0E0],"parents":[2147483647,0,0,1,1,2,2],"right_children":[2,4,6,-1,-1,-1,-1],"split_conditions":[1E0,1E0,1E0,-2.2183508E-1,2.6204067E-1,6.204808E-1,-2.558265E-1],"split_indices":[102,127,74,0,0,0,0],"split_type":[0,0,0,0,0,0,0],"sum_hessian":[7.3172003E2,6.082505E2,1.2346956E2,5.309986E2,7.725188E1,1.1154398E2,1.1925574E1],"tree_param":{"num_deleted":"0","num_feature":"145","num_nodes":"7","size_leaf_vector":"1"}},{"base_weights":[3.1708862E-4,-2.5214735E-1,1.2618138E0,-1.8941052E-1,4.9260834E-1,8.0810046E-1,4.9889475E-1],"categories":[],"categories_nodes":[],"categories_segments":[],"categories_sizes":[],"default_left":[0,0,0,0,0,0,0],"id":95,"left_children":[1,3,5,-1,-1,-1,-1],"loss_changes":[2.9677124E2,1.22073456E2,1.2926651E1,0E0,0E0,0E0,0E0],"parents":[2147483647,0,0,1,1,2,2],"right_children":[2,4,6,-1,-1,-1,-1],"split_conditions":[1E0,1E0,1E0,-1.8941052E-1,4.9260834E-1,8.0810046E-1,4.9889475E-1],"split_indices":[72,59,59,0,0,0,0],"split_type":[0,0,0,0,0,0,0],"sum_hessian":[9.298284E2,7.754392E2,1.543892E2,7.0405615E2,7.138309E1,6.3728317E1,9.06609E1],"tree_param":{"num_deleted":"0","num_feature":"145","num_nodes":"7","size_leaf_vector":"1"}},{"base_weights":[9.836558E-2,-1.4854889E-1,1.1435862E0,-3.2632279E-3,-2.6716945E-1,8.111474E-1,-2.5227585E-1],"categories":[],"categories_nodes":[],"categories_segments":[],"categories_sizes":[],"default_left":[0,0,0,0,0,0,0],"id":96,"left_children":[1,3,5,-1,-1,-1,-1],"loss_changes":[3.140495E2,5.3948456E1,1.8427234E2,0E0,0E0,0E0,0E0],"parents":[2147483647,0,0,1,1,2,2],"right_children":[2,4,6,-1,-1,-1,-1],"split_conditions":[1E0,1E0,1E0,-3.2632279E-3,-2.6716945E-1,8.111474E-1,-2.5227585E-1],"split_indices":[80,114,26,0,0,0,0],"split_type":[0,0,0,0,0,0,0],"sum_hessian":[1.2152101E3,9.8368915E2,2.3152089E2,7.197439E2,2.6394528E2,1.7942255E2,5.2098354E1],"tree_param":{"num_deleted":"0","num_feature":"145","num_nodes":"7","size_leaf_vector":"1"}},{"base_weights":[-2.4660486E-1,-4.3158945E-1,9.4114906E-1,-2.4333887E-1,5.6513137E-1,5.64226E-1,-2.3161894E-1],"categories":[],"categories_nodes":[],"categories_segments":[],"categories_sizes":[],"default_left":[0,0,0,0,0,0,0],"id":97,"left_children":[1,3,5,-1,-1,-1,-1],"loss_changes":[1.402442E2,4.79897E1,2.3165611E1,0E0,0E0,0E0,0E0],"parents":[2147483647,0,0,1,1,2,2],"right_children":[2,4,6,-1,-1,-1,-1],"split_conditions":[1E0,1E0,1E0,-2.4333887E-1,5.6513137E-1,5.64226E-1,-2.3161894E-1],"split_indices":[83,109,128,0,0,0,0],"split_type":[0,0,0,0,0,0,0],"sum_hessian":[6.354484E2,5.5036884E2,8.507957E1,5.32283E2,1.8085823E1,7.524115E1,9.838423E0],"tree_param":{"num_deleted":"0","num_feature":"145","num_nodes":"7","size_leaf_vector":"1"}},{"base_weights":[-4.5830247E-1,-2.4126296E-1,-3.453555E-1,-6.958886E-2,-2.4909548E-1],"categories":[],"categories_nodes":[],"categories_segments":[],"categories_sizes":[],"default_left":[0,0,0,0,0],"id":98,"left_children":[1,-1,3,-1,-1],"loss_changes":[1.2544861E0,0E0,2.9319506E0,0E0,0E0],"parents":[2147483647,0,0,2,2],"right_children":[2,-1,4,-1,-1],"split_conditions":[1E0,-2.4126296E-1,1E0,-6.958886E-2,-2.4909548E-1],"split_indices":[60,0,139,0,0],"split_type":[0,0,0,0,0],"sum_hessian":[5.184242E2,4.2417938E2,9.424483E1,4.093432E1,5.331051E1],"tree_param":{"num_deleted":"0","num_feature":"145","num_nodes":"5","size_leaf_vector":"1"}},{"base_weights":[-4.031617E-1,-4.7725716E-1,1.3827276E0,-2.4129179E-1,1.8927321E-1,1.6037447E0,-2.3382276E-1],"categories":[],"categories_nodes":[],"categories_segments":[],"categories_sizes":[],"default_left":[0,0,0,0,0,0,0],"id":99,"left_children":[1,3,5,-1,-1,-1,-1],"loss_changes":[7.279897E1,2.5721207E0,7.569473E1,0E0,0E0,0E0,0E0],"parents":[2147483647,0,0,1,1,2,2],"right_children":[2,4,6,-1,-1,-1,-1],"split_conditions":[1E0,1E0,1E0,-2.4129179E-1,1.8927321E-1,1.6037447E0,-2.3382276E-1],"split_indices":[67,105,115,0,0,0,0],"split_type":[0,0,0,0,0,0,0],"sum_hessian":[5.441605E2,5.231866E2,2.0973928E1,5.2038385E2,2.8026931E0,1.0190776E1,1.0783153E1],"tree_param":{"num_deleted":"0","num_feature":"145","num_nodes":"7","size_leaf_vector":"1"}},{"base_weights":[-9.165298E-2,-3.4360626E-1,1.1618974E0,-2.1616222E-1,-6.05197E-2,6.163265E-1,-2.595964E-1],"categories":[],"categories_nodes":[],"categories_segments":[],"categories_sizes":[],"default_left":[0,0,0,0,0,0,0],"id":100,"left_children":[1,3,5,-1,-1,-1,-1],"loss_changes":[2.3869649E2,1.2367729E1,1.5686371E1,0E0,0E0,0E0,0E0],"parents":[2147483647,0,0,1,1,2,2],"right_children":[2,4,6,-1,-1,-1,-1],"split_conditions":[1E0,1E0,1E0,-2.1616222E-1,-6.05197E-2,6.163265E-1,-2.595964E-1],"split_indices":[82,139,111,0,0,0,0],"split_type":[0,0,0,0,0,0,0],"sum_hessian":[7.5349646E2,6.2799963E2,1.2549685E2,4.4834198E2,1.7965765E2,1.2068411E2,4.812739E0],"tree_param":{"num_deleted":"0","num_feature":"145","num_nodes":"7","size_leaf_vector":"1"}},{"base_weights":[1.8633151E-2,-2.6075077E-1,1.4020529E0,-1.7360929E-1,2.9998517E-1,1.022945E0,2.9400972E-1],"categories":[],"categories_nodes":[],"categories_segments":[],"categories_sizes":[],"default_left":[0,0,0,0,0,0,0],"id":101,"left_children":[1,3,5,-1,-1,-1,-1],"loss_changes":[4.0447775E2,6.501164E1,9.095068E1,0E0,0E0,0E0,0E0],"parents":[2147483647,0,0,1,1,2,2],"right_children":[2,4,6,-1,-1,-1,-1],"split_conditions":[1E0,1E0,1E0,-1.7360929E-1,2.9998517E-1,1.022945E0,2.9400972E-1],"split_indices":[84,49,81,0,0,0,0],"split_type":[0,0,0,0,0,0,0],"sum_hessian":[1.0445542E3,8.697236E2,1.7483061E2,7.908696E2,7.885395E1,9.677546E1,7.805516E1],"tree_param":{"num_deleted":"0","num_feature":"145","num_nodes":"7","size_leaf_vector":"1"}},{"base_weights":[6.1865818E-2,3.8515502E-1,-5.5546635E-1,6.960706E-2,5.9493285E-1,-2.6106825E-1,-3.110214E-1],"categories":[],"categories_nodes":[],"categories_segments":[],"categories_sizes":[],"default_left":[0,0,0,0,0,0,0],"id":102,"left_children":[1,3,5,-1,-1,-1,-1],"loss_changes":[3.0917447E2,2.0103056E2,8.5676575E-1,0E0,0E0,0E0,0E0],"parents":[2147483647,0,0,1,1,2,2],"right_children":[2,4,6,-1,-1,-1,-1],"split_conditions":[1E0,1E0,1E0,6.960706E-2,5.9493285E-1,-2.6106825E-1,-3.110214E-1],"split_indices":[119,137,26,0,0,0,0],"split_type":[0,0,0,0,0,0,0],"sum_hessian":[1.5470781E3,1.0155981E3,5.3148E2,7.7876105E2,2.3683702E2,3.6006485E2,1.7141516E2],"tree_param":{"num_deleted":"0","num_feature":"145","num_nodes":"7","size_leaf_vector":"1"}},{"base_weights":[-4.5413107E-1,-4.8078752E-1,4.7629982E-1,-2.5130016E-1,-1.7904776E-1],"categories":[],"categories_nodes":[],"categories_segments":[],"categories_sizes":[],"default_left":[0,0,0,0,0],"id":103,"left_children":[1,3,-1,-1,-1],"loss_changes":[2.0069801E1,1.1954575E0,0E0,0E0,0E0],"parents":[2147483647,0,0,1,1],"right_children":[2,4,-1,-1,-1],"split_conditions":[1E0,1E0,4.7629982E-1,-2.5130016E-1,-1.7904776E-1],"split_indices":[90,26,0,0,0],"split_type":[0,0,0,0,0],"sum_hessian":[5.220035E2,5.1294183E2,9.061622E0,4.3288495E2,8.0056885E1],"tree_param":{"num_deleted":"0","num_feature":"145","num_nodes":"5","size_leaf_vector":"1"}},{"base_weights":[1.7186172E-1,-1.9957861E-1,9.847594E-1,-1.89876E-1,4.834631E-1,5.596338E-1,2.481776E-1],"categories":[],"categories_nodes":[],"categories_segments":[],"categories_sizes":[],"default_left":[0,0,0,0,0,0,0],"id":104,"left_children":[1,3,5,-1,-1,-1,-1],"loss_changes":[3.1927094E2,1.529839E2,2.1228027E1,0E0,0E0,0E0,0E0],"parents":[2147483647,0,0,1,1,2,2],"right_children":[2,4,6,-1,-1,-1,-1],"split_conditions":[1E0,1E0,1E0,-1.89876E-1,4.834631E-1,5.596338E-1,2.481776E-1],"split_indices":[132,44,14,0,0,0,0],"split_type":[0,0,0,0,0,0,0],"sum_hessian":[1.0557373E3,7.251475E2,3.3058984E2,6.287135E2,9.643398E1,2.5819138E2,7.2398445E1],"tree_param":{"num_deleted":"0","num_feature":"145","num_nodes":"7","size_leaf_vector":"1"}},{"base_weights":[-4.2512497E-1,-4.6385318E-1,9.686985E-1,-2.4263634E-1,1.5767835E-1],"categories":[],"categories_nodes":[],"categories_segments":[],"categories_sizes":[],"default_left":[0,0,0,0,0],"id":105,"left_children":[1,3,-1,-1,-1],"loss_changes":[4.9477364E1,8.885056E0,0E0,0E0,0E0],"parents":[2147483647,0,0,1,1],"right_children":[2,4,-1,-1,-1],"split_conditions":[1E0,1E0,9.686985E-1,-2.4263634E-1,1.5767835E-1],"split_indices":[100,85,0,0,0],"split_type":[0,0,0,0,0],"sum_hessian":[5.299364E2,5.221801E2,7.756303E0,5.085772E2,1.3602908E1],"tree_param":{"num_deleted":"0","num_feature":"145","num_nodes":"5","size_leaf_vector":"1"}},{"base_weights":[2.741946E-1,-5.988188E-1,6.6041255E-1,-2.5638688E-1,-7.3466575E-1,3.6782864E-1,-3.1161115E-1],"categories":[],"categories_nodes":[],"categories_segments":[],"categories_sizes":[],"default_left":[0,0,0,0,0,0,0],"id":106,"left_children":[1,3,5,-1,-1,-1,-1],"loss_changes":[7.86653E2,5.2858032E1,1.5665533E2,0E0,0E0,0E0,0E0],"parents":[2147483647,0,0,1,1,2,2],"right_children":[2,4,6,-1,-1,-1,-1],"split_conditions":[1E0,1E0,1E0,-2.5638688E-1,-7.3466575E-1,3.6782864E-1,-3.1161115E-1],"split_indices":[26,89,137,0,0,0,0],"split_type":[0,0,0,0,0,0,0],"sum_hessian":[2.3309084E3,7.147424E2,1.616166E3,6.5189545E2,6.284697E1,1.5270779E3,8.908811E1],"tree_param":{"num_deleted":"0","num_feature":"145","num_nodes":"7","size_leaf_vector":"1"}},{"base_weights":[1.3959834E-1,-2.624216E-1,8.245925E-1,-2.4029362E-1,2.533396E-1,3.1627366E-1,4.949012E-1],"categories":[],"categories_nodes":[],"categories_segments":[],"categories_sizes":[],"default_left":[0,0,0,0,0,0,0],"id":107,"left_children":[1,3,5,-1,-1,-1,-1],"loss_changes":[3.578554E2,1.3769012E2,1.4620728E1,0E0,0E0,0E0,0E0],"parents":[2147483647,0,0,1,1,2,2],"right_children":[2,4,6,-1,-1,-1,-1],"split_conditions":[1E0,1E0,1E0,-2.4029362E-1,2.533396E-1,3.1627366E-1,4.949012E-1],"split_indices":[124,7,114,0,0,0,0],"split_type":[0,0,0,0,0,0,0],"sum_hessian":[1.2977047E3,8.181519E2,4.7955273E2,6.3764935E2,1.8050258E2,2.2399861E2,2.5555414E2],"tree_param":{"num_deleted":"0","num_feature":"145","num_nodes":"7","size_leaf_vector":"1"}},{"base_weights":[-2.119864E-1,-3.8838783E-1,1.7093792E0,-2.2647728E-1,1.0196047E0,9.7728825E-1,-2.0981148E-1],"categories":[],"categories_nodes":[],"categories_segments":[],"categories_sizes":[],"default_left":[0,0,0,0,0,0,0],"id":108,"left_children":[1,3,5,-1,-1,-1,-1],"loss_changes":[2.1013683E2,8.977802E1,2.8046997E1,0E0,0E0,0E0,0E0],"parents":[2147483647,0,0,1,1,2,2],"right_children":[2,4,6,-1,-1,-1,-1],"split_conditions":[1E0,1E0,1E0,-2.2647728E-1,1.0196047E0,9.7728825E-1,-2.0981148E-1],"split_indices":[89,104,26,0,0,0,0],"split_type":[0,0,0,0,0,0,0],"sum_hessian":[6.170389E2,5.658828E2,5.1156094E1,5.520143E2,1.386849E1,4.5946377E1,5.2097187E0],"tree_param":{"num_deleted":"0","num_feature":"145","num_nodes":"7","size_leaf_vector":"1"}},{"base_weights":[-1.8348196E-1,-3.5961494E-1,1.0848165E0,-2.2120114E-1,1.5791723E-1,6.51872E-1,-2.3248598E-1],"categories":[],"categories_nodes":[],"categories_segments":[],"categories_sizes":[],"default_left":[0,0,0,0,0,0,0],"id":109,"left_children":[1,3,5,-1,-1,-1,-1],"loss_changes":[1.6022606E2,3.5312973E1,3.0293213E1,0E0,0E0,0E0,0E0],"parents":[2147483647,0,0,1,1,2,2],"right_children":[2,4,6,-1,-1,-1,-1],"split_conditions":[1E0,1E0,1E0,-2.2120114E-1,1.5791723E-1,6.51872E-1,-2.3248598E-1],"split_indices":[91,47,114,0,0,0,0],"split_type":[0,0,0,0,0,0,0],"sum_hessian":[7.145044E2,6.2800726E2,8.6497086E1,5.597463E2,6.8261E1,7.592979E1,1.0567298E1],"tree_param":{"num_deleted":"0","num_feature":"145","num_nodes":"7","size_leaf_vector":"1"}},{"base_weights":[-3.6497876E-1,-4.2468914E-1,1.2971365E0,-2.2761641E-1,3.7558112E-1,8.449307E-1,2.5716963E-1],"categories":[],"categories_nodes":[],"categories_segments":[],"categories_sizes":[],"default_left":[0,0,0,0,0,0,0],"id":110,"left_children":[1,3,5,-1,-1,-1,-1],"loss_changes":[5.642157E1,1.9886261E1,5.2083206E0,0E0,0E0,0E0,0E0],"parents":[2147483647,0,0,1,1,2,2],"right_children":[2,4,6,-1,-1,-1,-1],"split_conditions":[1E0,1E0,1E0,-2.2761641E-1,3.7558112E-1,8.449307E-1,2.5716963E-1],"split_indices":[32,39,77,0,0,0,0],"split_type":[0,0,0,0,0,0,0],"sum_hessian":[5.61954E2,5.4318494E2,1.8769073E1,5.3002985E2,1.31551E1,1.1726973E1,7.042101E0],"tree_param":{"num_deleted":"0","num_feature":"145","num_nodes":"7","size_leaf_vector":"1"}},{"base_weights":[-8.672417E-1,-5.461194E-1,-1.2749566E0,-1.421607E-1,-4.7599557E-1,-9.7648215E-1,-4.9721336E-1],"categories":[],"categories_nodes":[],"categories_segments":[],"categories_sizes":[],"default_left":[0,0,0,0,0,0,0],"id":111,"left_children":[1,3,5,-1,-1,-1,-1],"loss_changes":[1.8143677E2,8.260335E1,1.144931E2,0E0,0E0,0E0,0E0],"parents":[2147483647,0,0,1,1,2,2],"right_children":[2,4,6,-1,-1,-1,-1],"split_conditions":[1E0,1E0,1E0,-1.421607E-1,-4.7599557E-1,-9.7648215E-1,-4.9721336E-1],"split_indices":[30,7,93,0,0,0,0],"split_type":[0,0,0,0,0,0,0],"sum_hessian":[1.3901117E3,7.7894366E2,6.11168E2,4.745481E2,3.0439557E2,1.7712239E2,4.3404565E2],"tree_param":{"num_deleted":"0","num_feature":"145","num_nodes":"7","size_leaf_vector":"1"}},{"base_weights":[-1.7676274E-1,-3.3071232E-1,2.355482E0,-2.1597423E-1,7.40885E-1,1.718769E0,2.5000662E-1],"categories":[],"categories_nodes":[],"categories_segments":[],"categories_sizes":[],"default_left":[0,0,0,0,0,0,0],"id":112,"left_children":[1,3,5,-1,-1,-1,-1],"loss_changes":[2.4539616E2,1.09338585E2,7.073001E1,0E0,0E0,0E0,0E0],"parents":[2147483647,0,0,1,1,2,2],"right_children":[2,4,6,-1,-1,-1,-1],"split_conditions":[1E0,1E0,1E0,-2.1597423E-1,7.40885E-1,1.718769E0,2.5000662E-1],"split_indices":[47,71,116,0,0,0,0],"split_type":[0,0,0,0,0,0,0],"sum_hessian":[6.2648413E2,5.9139905E2,3.5085114E1,5.6083527E2,3.0563753E1,2.1622717E1,1.3462397E1],"tree_param":{"num_deleted":"0","num_feature":"145","num_nodes":"7","size_leaf_vector":"1"}},{"base_weights":[1.4790764E-1,-1.387215E-1,1.2171906E0,-1.3732722E-1,2.1901597E-1,6.3108367E-1,-2.2773112E-1],"categories":[],"categories_nodes":[],"categories_segments":[],"categories_sizes":[],"default_left":[0,0,0,0,0,0,0],"id":113,"left_children":[1,3,5,-1,-1,-1,-1],"loss_changes":[4.693716E2,9.484134E1,2.492868E1,0E0,0E0,0E0,0E0],"parents":[2147483647,0,0,1,1,2,2],"right_children":[2,4,6,-1,-1,-1,-1],"split_conditions":[1E0,1E0,1E0,-1.3732722E-1,2.1901597E-1,6.3108367E-1,-2.2773112E-1],"split_indices":[91,111,119,0,0,0,0],"split_type":[0,0,0,0,0,0,0],"sum_hessian":[1.5299026E3,1.2071796E3,3.2272305E2,9.7735425E2,2.298253E2,3.1451144E2,8.211624E0],"tree_param":{"num_deleted":"0","num_feature":"145","num_nodes":"7","size_leaf_vector":"1"}},{"base_weights":[8.968073E-1,3.833073E-1,2.2121837E0,-4.1952062E-2,7.061578E-1,1.7094686E0,9.0469986E-1],"categories":[],"categories_nodes":[],"categories_segments":[],"categories_sizes":[],"default_left":[0,0,0,0,0,0,0],"id":114,"left_children":[1,3,5,-1,-1,-1,-1],"loss_changes":[1.7680442E3,9.062425E2,3.51114E2,0E0,0E0,0E0,0E0],"parents":[2147483647,0,0,1,1,2,2],"right_children":[2,4,6,-1,-1,-1,-1],"split_conditions":[1E0,1E0,1E0,-4.1952062E-2,7.061578E-1,1.7094686E0,9.0469986E-1],"split_indices":[33,27,93,0,0,0,0],"split_type":[0,0,0,0,0,0,0],"sum_hessian":[2.617851E3,1.8837567E3,7.340943E2,1.2961641E3,5.875926E2,1.8183191E2,5.522624E2],"tree_param":{"num_deleted":"0","num_feature":"145","num_nodes":"7","size_leaf_vector":"1"}},{"base_weights":[-1.9513457E-1,-2.9439056E-1,1.5267832E0,-1.9770807E-1,1.5069784E-1,-2.2654548E-1,1.0057412E0],"categories":[],"categories_nodes":[],"categories_segments":[],"categories_sizes":[],"default_left":[0,0,0,0,0,0,0],"id":115,"left_children":[1,3,5,-1,-1,-1,-1],"loss_changes":[1.3706978E2,4.566098E1,4.2874718E1,0E0,0E0,0E0,0E0],"parents":[2147483647,0,0,1,1,2,2],"right_children":[2,4,6,-1,-1,-1,-1],"split_conditions":[1E0,1E0,1E0,-1.9770807E-1,1.5069784E-1,-2.2654548E-1,1.0057412E0],"split_indices":[95,108,115,0,0,0,0],"split_type":[0,0,0,0,0,0,0],"sum_hessian":[7.983667E2,7.556387E2,4.2728027E1,6.4637177E2,1.0926687E2,8.416E0,3.4312027E1],"tree_param":{"num_deleted":"0","num_feature":"145","num_nodes":"7","size_leaf_vector":"1"}},{"base_weights":[-2.3451653E-1,6.1252034E-1,-2.5354147E-1,6.6977955E-2,5.553304E-1],"categories":[],"categories_nodes":[],"categories_segments":[],"categories_sizes":[],"default_left":[0,0,0,0,0],"id":116,"left_children":[1,3,-1,-1,-1],"loss_changes":[1.0917583E2,2.732542E1,0E0,0E0,0E0],"parents":[2147483647,0,0,1,1],"right_children":[2,4,-1,-1,-1],"split_conditions":[1E0,1E0,-2.5354147E-1,6.6977955E-2,5.553304E-1],"split_indices":[115,22,0,0,0],"split_type":[0,0,0,0,0],"sum_hessian":[4.7053568E2,1.1424785E2,3.562878E2,5.891603E1,5.5331818E1],"tree_param":{"num_deleted":"0","num_feature":"145","num_nodes":"5","size_leaf_vector":"1"}},{"base_weights":[-3.4370244E-1,-4.1491276E-1,6.1485505E-1,-2.2111751E-1,1.0937953E-1,7.050026E-1,-2.3615707E-1],"categories":[],"categories_nodes":[],"categories_segments":[],"categories_sizes":[],"default_left":[0,0,0,0,0,0,0],"id":117,"left_children":[1,3,5,-1,-1,-1,-1],"loss_changes":[3.0449451E1,7.2360153E0,2.7457497E1,0E0,0E0,0E0,0E0],"parents":[2147483647,0,0,1,1,2,2],"right_children":[2,4,6,-1,-1,-1,-1],"split_conditions":[1E0,1E0,1E0,-2.2111751E-1,1.0937953E-1,7.050026E-1,-2.3615707E-1],"split_indices":[112,82,60,0,0,0,0],"split_type":[0,0,0,0,0,0,0],"sum_hessian":[4.4134842E2,4.1135632E2,2.9992117E1,3.9464246E2,1.671385E1,1.7151007E1,1.2841111E1],"tree_param":{"num_deleted":"0","num_feature":"145","num_nodes":"7","size_leaf_vector":"1"}},{"base_weights":[-4.3650356E-1,-4.5337674E-1,2.5303125E-1,-2.3018026E-1,1.9783723E-1],"categories":[],"categories_nodes":[],"categories_segments":[],"categories_sizes":[],"default_left":[0,0,0,0,0],"id":118,"left_children":[1,3,-1,-1,-1],"loss_changes":[6.5627594E0,2.5050278E0,0E0,0E0,0E0],"parents":[2147483647,0,0,1,1],"right_children":[2,4,-1,-1,-1],"split_conditions":[1E0,1E0,2.5303125E-1,-2.3018026E-1,1.9783723E-1],"split_indices":[1,16,0,0,0],"split_type":[0,0,0,0,0],"sum_hessian":[3.972196E2,3.9074377E2,6.4758353E0,3.8801004E2,2.7337387E0],"tree_param":{"num_deleted":"0","num_feature":"145","num_nodes":"5","size_leaf_vector":"1"}},{"base_weights":[-3.0051863E-1,-4.5467243E-1,7.272401E-1,-2.5769112E-1,2.2306383E-1,2.723346E-1,4.2490873E-1],"categories":[],"categories_nodes":[],"categories_segments":[],"categories_sizes":[],"default_left":[0,0,0,0,0,0,0],"id":119,"left_children":[1,3,5,-1,-1,-1,-1],"loss_changes":[8.263379E1,2.4967392E1,1.062027E0,0E0,0E0,0E0,0E0],"parents":[2147483647,0,0,1,1,2,2],"right_children":[2,4,6,-1,-1,-1,-1],"split_conditions":[1E0,1E0,1E0,-2.5769112E-1,2.2306383E-1,2.723346E-1,4.2490873E-1],"split_indices":[113,8,7,0,0,0,0],"split_type":[0,0,0,0,0,0,0],"sum_hessian":[5.1848254E2,4.5134308E2,6.713946E1,4.232461E2,2.8096985E1,2.9156404E1,3.7983055E1],"tree_param":{"num_deleted":"0","num_feature":"145","num_nodes":"7","size_leaf_vector":"1"}},{"base_weights":[-2.7204975E-1,-4.3013644E-1,1.015737E0,-2.380409E-1,4.3066585E-1,8.3484465E-1,3.6926246E-1],"categories":[],"categories_nodes":[],"categories_segments":[],"categories_sizes":[],"default_left":[0,0,0,0,0,0,0],"id":120,"left_children":[1,3,5,-1,-1,-1,-1],"loss_changes":[9.896456E1,2.6029228E1,8.413551E0,0E0,0E0,0E0,0E0],"parents":[2147483647,0,0,1,1,2,2],"right_children":[2,4,6,-1,-1,-1,-1],"split_conditions":[1E0,1E0,1E0,-2.380409E-1,4.3066585E-1,8.3484465E-1,3.6926246E-1],"split_indices":[5,24,21,0,0,0,0],"split_type":[0,0,0,0,0,0,0],"sum_hessian":[4.829705E2,4.307574E2,5.2213108E1,4.1656888E2,1.4188516E1,1.4048677E1,3.8164433E1],"tree_param":{"num_deleted":"0","num_feature":"145","num_nodes":"7","size_leaf_vector":"1"}},{"base_weights":[-3.5531473E-1,-4.221598E-1,1.706574E0,-2.2288911E-1,5.286429E-1,1.5994204E0,6.4091986E-1],"categories":[],"categories_nodes":[],"categories_segments":[],"categories_sizes":[],"default_left":[0,0,0,0,0,0,0],"id":121,"left_children":[1,3,5,-1,-1,-1,-1],"loss_changes":[5.9414814E1,1.4912346E1,4.5009537E0,0E0,0E0,0E0,0E0],"parents":[2147483647,0,0,1,1,2,2],"right_children":[2,4,6,-1,-1,-1,-1],"split_conditions":[1E0,1E0,1E0,-2.2288911E-1,5.286429E-1,1.5994204E0,6.4091986E-1],"split_indices":[135,136,60,0,0,0,0],"split_type":[0,0,0,0,0,0,0],"sum_hessian":[4.2485498E2,4.1228427E2,1.2570727E1,4.0649353E2,5.7907248E0,1.3380861E0,1.1232641E1],"tree_param":{"num_deleted":"0","num_feature":"145","num_nodes":"7","size_leaf_vector":"1"}},{"base_weights":[3.0329233E-1,-7.710697E-2,9.3949455E-1,-1.6865598E-1,4.2148733E-1,6.1242145E-1,4.1565347E-1],"categories":[],"categories_nodes":[],"categories_segments":[],"categories_sizes":[],"default_left":[0,0,0,0,0,0,0],"id":122,"left_children":[1,3,5,-1,-1,-1,-1],"loss_changes":[2.8517834E2,1.770109E2,1.2592712E1,0E0,0E0,0E0,0E0],"parents":[2147483647,0,0,1,1,2,2],"right_children":[2,4,6,-1,-1,-1,-1],"split_conditions":[1E0,1E0,1E0,-1.6865598E-1,4.2148733E-1,6.1242145E-1,4.1565347E-1],"split_indices":[98,122,36,0,0,0,0],"split_type":[0,0,0,0,0,0,0],"sum_hessian":[1.1770707E3,7.3717584E2,4.3989487E2,5.751524E2,1.620234E2,1.1809475E2,3.218001E2],"tree_param":{"num_deleted":"0","num_feature":"145","num_nodes":"7","size_leaf_vector":"1"}},{"base_weights":[-8.035473E-2,7.2717947E-1,-2.5396252E-1,2.9002024E-2,6.069615E-1],"categories":[],"categories_nodes":[],"categories_segments":[],"categories_sizes":[],"default_left":[0,0,0,0,0],"id":123,"left_children":[1,3,-1,-1,-1],"loss_changes":[2.0548395E2,6.7047676E1,0E0,0E0,0E0],"parents":[2147483647,0,0,1,1],"right_children":[2,4,-1,-1,-1],"split_conditions":[1E0,1E0,-2.5396252E-1,2.9002024E-2,6.069615E-1],"split_indices":[115,41,0,0,0],"split_type":[0,0,0,0,0],"sum_hessian":[5.9305695E2,2.0506276E2,3.8799417E2,8.682072E1,1.1824204E2],"tree_param":{"num_deleted":"0","num_feature":"145","num_nodes":"5","size_leaf_vector":"1"}},{"base_weights":[-1.2351602E-2,-2.2963998E-1,9.1946316E-1,-1.7059603E-1,3.9038795E-1,5.275369E-1,3.9566663E-1],"categories":[],"categories_nodes":[],"categories_segments":[],"categories_sizes":[],"default_left":[0,0,0,0,0,0,0],"id":124,"left_children":[1,3,5,-1,-1,-1,-1],"loss_changes":[1.5607597E2,7.071735E1,1.697876E0,0E0,0E0,0E0,0E0],"parents":[2147483647,0,0,1,1,2,2],"right_children":[2,4,6,-1,-1,-1,-1],"split_conditions":[1E0,1E0,1E0,-1.7059603E-1,3.9038795E-1,5.275369E-1,3.9566663E-1],"split_indices":[72,59,59,0,0,0,0],"split_type":[0,0,0,0,0,0,0],"sum_hessian":[7.6880743E2,6.2404175E2,1.4476573E2,5.625926E2,6.1449104E1,6.681515E1,7.795058E1],"tree_param":{"num_deleted":"0","num_feature":"145","num_nodes":"7","size_leaf_vector":"1"}},{"base_weights":[6.958838E-2,-1.7330311E-1,8.0309945E-1,-1.516942E-1,2.9576966E-1,5.3859085E-1,-2.5114274E-1],"categories":[],"categories_nodes":[],"categories_segments":[],"categories_sizes":[],"default_left":[0,0,0,0,0,0,0],"id":125,"left_children":[1,3,5,-1,-1,-1,-1],"loss_changes":[2.0137685E2,8.4685745E1,1.0113399E2,0E0,0E0,0E0,0E0],"parents":[2147483647,0,0,1,1,2,2],"right_children":[2,4,6,-1,-1,-1,-1],"split_conditions":[1E0,1E0,1E0,-1.516942E-1,2.9576966E-1,5.3859085E-1,-2.5114274E-1],"split_indices":[22,80,141,0,0,0,0],"split_type":[0,0,0,0,0,0,0],"sum_hessian":[1.1285105E3,8.483541E2,2.8015634E2,7.255543E2,1.227998E2,2.3168578E2,4.8470577E1],"tree_param":{"num_deleted":"0","num_feature":"145","num_nodes":"7","size_leaf_vector":"1"}},{"base_weights":[-2.343292E-1,-4.191322E-1,7.660398E-1,-2.3685458E-1,4.351559E-1,-1.1103359E-1,5.655492E-1],"categories":[],"categories_nodes":[],"categories_segments":[],"categories_sizes":[],"default_left":[0,0,0,0,0,0,0],"id":126,"left_children":[1,3,5,-1,-1,-1,-1],"loss_changes":[9.177842E1,2.9843742E1,2.820428E1,0E0,0E0,0E0,0E0],"parents":[2147483647,0,0,1,1,2,2],"right_children":[2,4,6,-1,-1,-1,-1],"split_conditions":[1E0,1E0,1E0,-2.3685458E-1,4.351559E-1,-1.1103359E-1,5.655492E-1],"split_indices":[83,109,23,0,0,0,0],"split_type":[0,0,0,0,0,0,0],"sum_hessian":[4.937085E2,4.1721533E2,7.649319E1,4.008803E2,1.633502E1,2.0742094E1,5.575109E1],"tree_param":{"num_deleted":"0","num_feature":"145","num_nodes":"7","size_leaf_vector":"1"}},{"base_weights":[-4.407464E-1,-3.883188E-1,-2.5265563E-1,-2.1057595E-1,-1.4103414E-1],"categories":[],"categories_nodes":[],"categories_segments":[],"categories_sizes":[],"default_left":[0,0,0,0,0],"id":127,"left_children":[1,3,-1,-1,-1],"loss_changes":[1.1364746E0,6.542511E-1,0E0,0E0,0E0],"parents":[2147483647,0,0,1,1],"right_children":[2,4,-1,-1,-1],"split_conditions":[1E0,1E0,-2.5265563E-1,-2.1057595E-1,-1.4103414E-1],"split_indices":[130,129,0,0,0],"split_type":[0,0,0,0,0],"sum_hessian":[3.927085E2,2.2059589E2,1.7211261E2,1.6625633E2,5.4339565E1],"tree_param":{"num_deleted":"0","num_feature":"145","num_nodes":"5","size_leaf_vector":"1"}},{"base_weights":[-3.8726968E-1,-4.6092635E-1,1.1225578E0,-2.454091E-1,3.3662346E-1,7.186682E-1,-1.9336557E-1],"categories":[],"categories_nodes":[],"categories_segments":[],"categories_sizes":[],"default_left":[0,0,0,0,0,0,0],"id":128,